{"learner":{"attributes":{"best_iteration":"99","best_ntree_limit":"100","scikit_learn":"{\"n_estimators\": 100, \"objective\": \"rank:ndcg\", \"max_depth\": null, \"max_leaves\": null, \"max_bin\": null, \"grow_policy\": null, \"learning_rate\": 0.1, \"verbosity\": null, \"booster\": null, \"tree_method\": null, \"gamma\": null, \"min_child_weight\": null, \"max_delta_step\": null, \"subsample\": null, \"sampling_method\": null, \"colsample_bytree\": null, \"colsample_bylevel\": null, \"colsample_bynode\": null, \"reg_alpha\": null, \"reg_lambda\": null, \"scale_pos_weight\": null, \"base_score\": null, \"missing\": NaN, \"num_parallel_tree\": null, \"random_state\": 0, \"n_jobs\": null, \"monotone_constraints\": null, \"interaction_constraints\": null, \"importance_type\": null, \"gpu_id\": null, \"validate_parameters\": null, \"predictor\": null, \"enable_categorical\": false, \"feature_types\": null, \"max_cat_to_onehot\": null, \"max_cat_threshold\": null, \"eval_metric\": null, \"early_stopping_rounds\": null, \"callbacks\": null, \"evals_result_\": {\"validation_0\": {\"ndcg\": [0.9926126549006716, 0.9926337239277674, 0.9926579715109168, 0.9926880924439008, 0.9926946989752656, 0.9927213259998163, 0.9927389718087258, 0.9927865677105046, 0.9928316903745876, 0.9928263026219709, 0.9928229650733854, 0.9928408093471481, 0.9928454061102074, 0.9928667585240321, 0.9928623461209993, 0.9928809725751582, 0.9928938348277856, 0.9929054840950261, 0.9929069129372595, 0.9929114079392919, 0.9929181023907482, 0.9929375892835732, 0.9929391061667571, 0.9929384785347223, 0.9929364821642984, 0.992932435255954, 0.9929419281142162, 0.992954632108003, 0.9929479849490087, 0.9929497013415136, 0.9929558032656977, 0.9929716959324258, 0.9929613013118646, 0.9929722150990844, 0.9929885901023262, 0.9929868488872047, 0.9929939358215201, 0.9930206731312021, 0.9930255358220501, 0.9930267397840231, 0.9930501003766538, 0.9930397371258377, 0.9930510287008137, 0.9930530298829217, 0.993047190267075, 0.9930708321134105, 0.9930776851617459, 0.9930875729497494, 0.9931007295140388, 0.993110887743982, 0.9931129035155807, 0.993117058517336, 0.9931139948235943, 0.9931242338415252, 0.9931251052026504, 0.9931333373214386, 0.9931282356384724, 0.9931275798009949, 0.9931422472778221, 0.9931284582595292, 0.9931383369449543, 0.993129743819411, 0.9931314056818095, 0.9931400238224682, 0.9931364964905135, 0.9931397774970746, 0.9931483113795115, 0.9931493055383195, 0.9931495452027234, 0.9931415381571215, 0.9931472530290737, 0.9931593825028827, 0.993161217471524, 0.993158150344626, 0.9931583215643937, 0.9931682886441547, 0.9931739806614684, 0.9931780433722124, 0.9931819218264281, 0.9931719929415941, 0.9931681629271398, 0.993185371723594, 0.9931891355626106, 0.9931888755541491, 0.9931876774970205, 0.9931854430631701, 0.9931934087209787, 0.9932006193575261, 0.9931996584237738, 0.9932096392960617, 0.9932067519312402, 0.9932112888292479, 0.9932103218856728, 0.9932123738103802, 0.9932234702518542, 0.9932130007867296, 0.9932131639270478, 0.993204287624187, 0.9932118068863025, 0.9932047601549899]}}, \"_estimator_type\": \"ranker\"}"},"feature_names":["0","1","2","3","4","5","6","7","8","9","10","11","12","13","14","15","16","17","18","19","20","21","22","23","24","25","26","27","28","29","30","31","32","33","34","35","36","37","38","39","40","41","42","43","44","45","46","47","48","49","50","51","52","53","54","55","56","57","58","59","60","61","62","63","64","65","66","67","68","69","70","71","72","73","74","75","76","77","78","79","80","81","82","83","84","85","86","87","88","89","90","91","92","93","94","95","96","97","98","99"],"feature_types":["float","float","float","float","float","float","float","float","float","float","float","float","float","float","float","float","float","float","float","float","float","float","float","float","float","float","float","float","float","float","float","float","float","float","float","float","float","float","float","float","float","float","float","float","float","float","float","float","float","float","float","float","float","float","float","float","float","float","float","float","float","float","float","float","float","float","float","float","float","float","float","float","float","float","float","float","float","float","float","float","float","float","float","float","float","float","float","float","float","float","float","float","float","float","float","float","float","float","float","float"],"gradient_booster":{"model":{"gbtree_model_param":{"num_parallel_tree":"1","num_trees":"100","size_leaf_vector":"0"},"tree_info":[0,0,0,0,0,0,0,0,0,0,0,0,0,0,0,0,0,0,0,0,0,0,0,0,0,0,0,0,0,0,0,0,0,0,0,0,0,0,0,0,0,0,0,0,0,0,0,0,0,0,0,0,0,0,0,0,0,0,0,0,0,0,0,0,0,0,0,0,0,0,0,0,0,0,0,0,0,0,0,0,0,0,0,0,0,0,0,0,0,0,0,0,0,0,0,0,0,0,0,0],"trees":[{"base_weights":[5.355412E-10,-7.61273E-1,7.0028245E-2,-4.854928E-1,-8.596992E-1,2.2456883E-1,4.1859155E-3,-5.4519475E-1,2.8011322E-1,-7.8167665E-1,-9.2252105E-1,3.3390307E-1,1.8521051E-1,7.3299505E-2,-1.04297414E-1,-4.245333E-1,-8.039659E-1,1.3946617E-2,5.1109076E-1,-6.567492E-1,-8.643347E-1,-4.7422335E-2,-9.2522687E-1,4.400673E-1,2.7809772E-1,3.2855174E-1,1.5697192E-1,2.5912204E-1,4.8483483E-2,-3.5838936E-2,-2.2416475E-1,-7.40344E-1,-3.65315E-1,-8.179295E-1,6.234057E-2,4.3384865E-1,-1.1141162E-1,5.782111E-1,-1.741611E-1,-8.2091534E-1,-5.374626E-1,-9.1815543E-1,-7.910307E-1,-3.419927E-1,3.5043326E-1,-2.1940847E-1,-9.2622995E-1,4.4620383E-1,-1.7616275E-1,5.003646E-1,2.5316074E-1,5.594378E-1,3.095928E-1,2.6144445E-1,1.3117316E-1,1.7810622E-1,3.3000746E-1,1.9982124E-2,1.3842665E-1,7.1695685E-2,-7.322984E-2,-2.0940241E-1,-8.04809E-1,-8.8501793E-1,-5.3879815E-1,-3.775973E-1,4.295993E-1,-9.188321E-1,-6.747772E-1,-1.4746961E-1,2.434059E-1,6.156865E-1,-6.806337E-2,1.2171039E-1,-4.4789666E-1,-1.3690676E-3,6.420971E-1,-8.342993E-1,-1.8016063E-1,-8.4884167E-1,-4.7021285E-1,-9.310693E-1,-5.7970387E-1,-9.077512E-1,-7.0401144E-1,-9.269182E-1,-1.8482214E-1,-1.2573482E-1,4.517636E-1,-5.19504E-1,5.138175E-1,5.286809E-1,2.4329608E-2,3.5131508E-1,2.0674936E-1,-3.4202868E-1,5.919447E-1,1.6712952E-1,3.4072304E-1,1.9005613E-1,3.17187E-1,1.8605335E-1,8.876476E-2,1.4278957E-1,3.8818118E-1,5.3490514E-1,2.9580945E-1,1.3521701E-1,-2.3246189E-3,1.1823511E-1,3.318284E-1,1.8160407E-1,9.582378E-3,-1.0143159E-1,3.4806316E-3,-3.0756924E-1,-1.7119616E-1,-8.276483E-1,1.2358376E-1],"categories":[],"categories_nodes":[],"categories_segments":[],"categories_sizes":[],"default_left":[1,1,1,1,1,1,1,1,1,1,1,1,1,1,1,1,1,1,1,1,1,1,1,1,1,1,1,1,1,1,1,1,1,1,1,1,1,1,0,1,1,1,1,0,0,0,1,1,1,1,1,1,1,1,1,1,1,1,1,1,1,1,1,0,0,0,0,0,0,0,0,0,0,0,0,0,0,0,0,0,0,0,0,0,0,0,0,0,0,0,0,0,0,0,0,0,0,0,0,0,0,0,0,0,0,0,0,0,0,0,0,0,0,0,0,0,0,0,0],"id":0,"left_children":[1,3,5,7,9,11,13,15,17,19,21,23,25,27,29,31,33,35,37,39,41,43,45,47,49,51,53,55,57,59,61,63,65,67,69,71,73,75,-1,77,79,81,83,-1,-1,-1,85,87,89,91,93,95,97,99,101,103,105,107,109,111,113,115,117,-1,-1,-1,-1,-1,-1,-1,-1,-1,-1,-1,-1,-1,-1,-1,-1,-1,-1,-1,-1,-1,-1,-1,-1,-1,-1,-1,-1,-1,-1,-1,-1,-1,-1,-1,-1,-1,-1,-1,-1,-1,-1,-1,-1,-1,-1,-1,-1,-1,-1,-1,-1,-1,-1,-1,-1],"loss_changes":[1.334443E3,5.6819336E1,2.332461E2,2.5608704E1,6.8895264E0,2.94086E1,1.2053538E2,1.5800568E1,2.5102892E0,6.6516113E0,1.9797363E0,1.0610031E1,2.0340881E1,4.527141E1,5.133072E1,6.362953E0,2.0261688E0,1.1038796E0,1.1077523E0,5.091797E0,9.211426E-1,5.520999E-1,3.9990234E-1,2.4323273E0,6.4696198E0,3.4522705E0,1.131472E1,6.5839844E0,2.220833E1,1.6021187E1,1.9323776E1,1.1278381E0,3.0976791E0,1.7021332E0,1.6959046E-1,4.813156E-1,1.3282746E0,7.4783707E-1,0E0,8.5313416E-1,3.08815E0,4.8547363E-1,1.2299118E0,0E0,0E0,0E0,2.6257324E-1,2.0174026E0,1.8906504E0,1.5915756E0,4.811119E0,2.0078564E0,3.3473969E0,3.2540512E0,7.8473625E0,3.9654026E0,4.1563873E0,1.6915888E1,8.101833E0,7.0174694E0,6.3954134E0,8.269951E0,1.2903404E0,0E0,0E0,0E0,0E0,0E0,0E0,0E0,0E0,0E0,0E0,0E0,0E0,0E0,0E0,0E0,0E0,0E0,0E0,0E0,0E0,0E0,0E0,0E0,0E0,0E0,0E0,0E0,0E0,0E0,0E0,0E0,0E0,0E0,0E0,0E0,0E0,0E0,0E0,0E0,0E0,0E0,0E0,0E0,0E0,0E0,0E0,0E0,0E0,0E0,0E0,0E0,0E0,0E0,0E0,0E0,0E0],"parents":[2147483647,0,0,1,1,2,2,3,3,4,4,5,5,6,6,7,7,8,8,9,9,10,10,11,11,12,12,13,13,14,14,15,15,16,16,17,17,18,18,19,19,20,20,21,21,22,22,23,23,24,24,25,25,26,26,27,27,28,28,29,29,30,30,31,31,32,32,33,33,34,34,35,35,36,36,37,37,39,39,40,40,41,41,42,42,46,46,47,47,48,48,49,49,50,50,51,51,52,52,53,53,54,54,55,55,56,56,57,57,58,58,59,59,60,60,61,61,62,62],"right_children":[2,4,6,8,10,12,14,16,18,20,22,24,26,28,30,32,34,36,38,40,42,44,46,48,50,52,54,56,58,60,62,64,66,68,70,72,74,76,-1,78,80,82,84,-1,-1,-1,86,88,90,92,94,96,98,100,102,104,106,108,110,112,114,116,118,-1,-1,-1,-1,-1,-1,-1,-1,-1,-1,-1,-1,-1,-1,-1,-1,-1,-1,-1,-1,-1,-1,-1,-1,-1,-1,-1,-1,-1,-1,-1,-1,-1,-1,-1,-1,-1,-1,-1,-1,-1,-1,-1,-1,-1,-1,-1,-1,-1,-1,-1,-1,-1,-1,-1,-1],"split_conditions":[-1.1952216E-1,1.9017474E-1,-2.2966063E-1,1.0432032E-1,3.145782E-1,-3.2378286E-1,-1.5395102E-1,1.882861E-1,-9.728348E-3,1.93622E-1,-7.640096E-1,-3.1957E-2,-1.9138971E-1,-3.3124194E-1,-1.3300365E-1,-3.4858504E-1,1.8912794E-1,-2.951245E-1,2.6064467E-1,-3.279546E-1,-3.0074906E-1,4.7301807E-2,-5.9438396E-1,4.466113E-1,-4.254511E-1,-2.2770132E-1,-2.0860964E-1,-8.125684E-2,3.0070692E-1,-2.5953305E-1,1.8552695E-1,-2.5915042E-2,3.0591416E-1,-2.522447E-1,1.3198556E-1,2.863621E-1,-2.9247383E-2,-1.1839552E-1,-1.741611E-2,3.9034586E-2,-2.8971127E-1,-9.2773914E-2,-1.6220066E-1,-3.419927E-2,3.5043325E-2,-2.1940848E-2,5.889981E-1,-2.517885E-1,2.6642215E-1,2.0795849E-1,-8.578482E-2,-6.299607E-1,2.4575382E-3,-1.9384383E-1,-2.8094697E-1,1.5991521E-1,-3.9609426E-1,-1.7329612E-1,-1.6663402E-2,-1.22872286E-1,2.819139E-1,2.4990056E-2,2.3751244E-1,-8.8501796E-2,-5.3879816E-2,-3.7759732E-2,4.295993E-2,-9.188321E-2,-6.7477725E-2,-1.4746961E-2,2.434059E-2,6.1568648E-2,-6.8063373E-3,1.2171039E-2,-4.478967E-2,-1.3690676E-4,6.4209715E-2,-8.342993E-2,-1.8016063E-2,-8.488417E-2,-4.7021285E-2,-9.310693E-2,-5.7970386E-2,-9.0775125E-2,-7.040115E-2,-9.2691824E-2,-1.8482214E-2,-1.25734825E-2,4.517636E-2,-5.1950403E-2,5.138175E-2,5.2868094E-2,2.4329608E-3,3.513151E-2,2.0674936E-2,-3.420287E-2,5.919447E-2,1.6712952E-2,3.4072306E-2,1.9005613E-2,3.17187E-2,1.8605335E-2,8.8764755E-3,1.4278958E-2,3.8818117E-2,5.3490516E-2,2.9580945E-2,1.3521701E-2,-2.3246188E-4,1.1823512E-2,3.318284E-2,1.8160408E-2,9.582378E-4,-1.014316E-2,3.4806316E-4,-3.0756924E-2,-1.7119616E-2,-8.276483E-2,1.2358376E-2],"split_indices":[60,37,78,94,37,5,55,19,61,19,16,38,81,55,5,67,37,97,46,94,94,6,54,90,55,38,83,45,95,5,37,51,53,2,1,34,93,92,0,96,87,96,57,0,0,0,44,64,75,11,93,98,42,66,78,54,5,83,85,40,95,95,2,0,0,0,0,0,0,0,0,0,0,0,0,0,0,0,0,0,0,0,0,0,0,0,0,0,0,0,0,0,0,0,0,0,0,0,0,0,0,0,0,0,0,0,0,0,0,0,0,0,0,0,0,0,0,0,0],"split_type":[0,0,0,0,0,0,0,0,0,0,0,0,0,0,0,0,0,0,0,0,0,0,0,0,0,0,0,0,0,0,0,0,0,0,0,0,0,0,0,0,0,0,0,0,0,0,0,0,0,0,0,0,0,0,0,0,0,0,0,0,0,0,0,0,0,0,0,0,0,0,0,0,0,0,0,0,0,0,0,0,0,0,0,0,0,0,0,0,0,0,0,0,0,0,0,0,0,0,0,0,0,0,0,0,0,0,0,0,0,0,0,0,0,0,0,0,0,0,0],"sum_hessian":[2.5029469E4,2.1076338E3,2.2921836E4,5.559239E2,1.55171E3,6.8474834E3,1.6074353E4,5.1597595E2,3.9947918E1,6.981165E2,8.5359344E2,1.8105199E3,5.036964E3,9.819058E3,6.2552944E3,3.5369394E2,1.6228203E2,1.9052814E1,2.0895103E1,2.8154355E2,4.1657297E2,2.688287E0,8.5090515E2,6.214282E2,1.1890917E3,8.2723303E2,4.2097305E3,1.1557032E3,8.6633545E3,3.982254E3,2.2730405E3,5.4033257E1,2.9966068E2,1.5976274E2,2.5192888E0,3.8145764E0,1.5238238E1,1.9173288E1,1.7218152E0,1.1600784E2,1.6553569E2,2.335628E2,1.8301016E2,1.6253188E0,1.0629684E0,1.5193902E0,8.4938574E2,6.1557416E2,5.85407E0,1.18027725E2,1.0710638E3,6.060949E1,7.6662354E2,8.3188055E2,3.37785E3,5.409535E2,6.1474976E2,6.5796157E3,2.083739E3,1.0271882E3,2.9550657E3,2.2180105E3,5.5030197E1,2.9480415E1,2.4552841E1,2.9561804E2,4.0426416E0,9.053175E1,6.923098E1,1.2529604E0,1.2663283E0,2.6337225E0,1.1808538E0,9.378771E0,5.859468E0,2.000761E0,1.7172527E1,1.1333839E2,2.669456E0,2.733717E1,1.3819852E2,2.2329196E2,1.027085E1,7.413713E1,1.0887303E2,8.48348E2,1.0377431E0,5.7182374E0,6.098559E2,4.07392E0,1.7801504E0,1.112968E2,6.7309265E0,3.4174536E2,7.2931854E2,1.7781059E0,5.8831383E1,1.3861932E2,6.280042E2,3.6668466E2,4.6519592E2,1.4709388E3,1.9069111E3,4.6453766E2,7.64158E1,8.583392E1,5.2891583E2,1.0662726E3,5.513343E3,1.8882168E3,1.9552226E2,3.7020078E2,6.569874E2,2.1604707E3,7.945951E2,6.194222E2,1.5985881E3,5.3814816E1,1.2153784E0],"tree_param":{"num_deleted":"0","num_feature":"100","num_nodes":"119","size_leaf_vector":"0"}},{"base_weights":[1.6775625E-10,-7.4385273E-1,6.4901225E-2,-7.662949E-1,2.1232392E-1,2.2657478E-1,-1.4832888E-2,-6.030304E-1,-8.469063E-1,-5.4014605E-1,3.514522E-1,3.3864737E-1,1.782089E-1,5.5082474E-2,-1.3373391E-1,-4.7865695E-1,-8.080615E-1,-7.919999E-1,-8.8982415E-1,7.875173E-2,-7.6295155E-1,9.284825E-2,5.408934E-1,4.4296962E-1,2.7616036E-1,3.3407712E-1,1.4155655E-1,2.6116243E-1,2.3018036E-2,-6.266019E-2,-2.5801063E-1,-4.2424846E-1,-7.9128295E-1,-8.741238E-1,-6.5911716E-1,-5.4141355E-1,-8.1074923E-1,-8.3607346E-2,-8.9313436E-1,1.8449996E-1,-4.172697E-1,6.158417E-1,-5.72607E-2,4.8895904E-1,3.507019E-1,4.7627255E-1,2.5046614E-1,5.494266E-1,3.0889112E-1,2.5521195E-1,1.0967595E-1,1.6947989E-1,3.2306835E-1,-9.948982E-3,1.2197116E-1,6.9100976E-2,-9.5895976E-2,-7.1810335E-1,-2.3795788E-1,-4.3981248E-1,3.7967855E-1,-8.6585766E-1,-5.270457E-1,-8.786477E-1,-1.1534745E-1,-8.599614E-1,-5.713841E-1,-5.997191E-1,6.7598075E-2,-7.170046E-1,-8.4640014E-1,2.5142905E-1,-5.063717E-1,-1.1647856E-1,-8.943374E-1,2.6407838E-1,-2.7834383E-1,2.6577327E-1,7.484211E-1,-1.8921404E-1,7.800163E-2,5.8917004E-1,4.54475E-1,3.6236775E-1,-3.4101552E-1,4.8652694E-1,-4.739973E-1,4.255247E-1,2.2649032E-1,5.7932425E-1,2.6807182E-3,2.5955987E-1,4.0332106E-1,4.5871133E-1,2.2982103E-1,1.7231986E-1,5.6517977E-2,1.20619476E-1,3.491818E-1,4.946973E-1,2.8789094E-1,1.2109958E-1,-3.7080668E-2,9.653298E-2,3.1728694E-1,1.8532332E-2,2.4266794E-1,-1.0228742E-2,-1.20857134E-1,-4.9041563E-1,-8.1190574E-1,-3.6511993E-1,-2.1299194E-1],"categories":[],"categories_nodes":[],"categories_segments":[],"categories_sizes":[],"default_left":[1,1,1,1,1,1,1,1,1,1,1,1,1,1,1,1,1,1,1,0,0,1,1,1,1,1,1,1,1,1,1,1,1,1,1,1,1,1,1,1,0,1,1,1,1,1,1,1,1,1,1,1,1,1,1,1,1,1,1,0,0,0,0,0,0,0,0,0,0,0,0,0,0,0,0,0,0,0,0,0,0,0,0,0,0,0,0,0,0,0,0,0,0,0,0,0,0,0,0,0,0,0,0,0,0,0,0,0,0,0,0,0,0],"id":1,"left_children":[1,3,5,7,9,11,13,15,17,19,21,23,25,27,29,31,33,35,37,-1,-1,39,41,43,45,47,49,51,53,55,57,59,61,63,65,67,69,71,73,75,-1,77,79,81,83,85,87,89,91,93,95,97,99,101,103,105,107,109,111,-1,-1,-1,-1,-1,-1,-1,-1,-1,-1,-1,-1,-1,-1,-1,-1,-1,-1,-1,-1,-1,-1,-1,-1,-1,-1,-1,-1,-1,-1,-1,-1,-1,-1,-1,-1,-1,-1,-1,-1,-1,-1,-1,-1,-1,-1,-1,-1,-1,-1,-1,-1,-1,-1],"loss_changes":[1.1752682E3,4.2084106E1,2.886396E2,2.4613647E1,4.9619865E0,4.002652E1,1.2467136E2,1.5792725E1,2.3009644E0,1.0952845E0,1.8641448E0,1.4403687E1,2.947786E1,6.239917E1,4.9033646E1,6.423424E0,1.7667542E0,2.2330017E0,1.814331E0,0E0,0E0,9.0589374E-1,1.0370951E0,3.3635406E0,7.0598297E0,5.162857E0,1.5139366E1,7.161812E0,2.6665142E1,1.5483015E1,1.8466446E1,4.428974E0,6.816406E-1,4.5433807E-1,8.6940384E-1,1.5531864E0,1.1547241E0,6.9354254E-1,5.543823E-1,6.526046E-1,0E0,7.2671986E-1,7.550072E-2,1.6446991E0,2.38826E0,1.7679749E0,5.105919E0,1.6602707E0,4.006386E0,4.628643E0,1.0881897E1,4.4761667E0,4.4333267E0,2.180707E1,1.0118366E1,6.2487993E0,6.034519E0,1.3930969E0,6.0722733E0,0E0,0E0,0E0,0E0,0E0,0E0,0E0,0E0,0E0,0E0,0E0,0E0,0E0,0E0,0E0,0E0,0E0,0E0,0E0,0E0,0E0,0E0,0E0,0E0,0E0,0E0,0E0,0E0,0E0,0E0,0E0,0E0,0E0,0E0,0E0,0E0,0E0,0E0,0E0,0E0,0E0,0E0,0E0,0E0,0E0,0E0,0E0,0E0,0E0,0E0,0E0,0E0,0E0,0E0],"parents":[2147483647,0,0,1,1,2,2,3,3,4,4,5,5,6,6,7,7,8,8,9,9,10,10,11,11,12,12,13,13,14,14,15,15,16,16,17,17,18,18,21,21,22,22,23,23,24,24,25,25,26,26,27,27,28,28,29,29,30,30,31,31,32,32,33,33,34,34,35,35,36,36,37,37,38,38,39,39,41,41,42,42,43,43,44,44,45,45,46,46,47,47,48,48,49,49,50,50,51,51,52,52,53,53,54,54,55,55,56,56,57,57,58,58],"right_children":[2,4,6,8,10,12,14,16,18,20,22,24,26,28,30,32,34,36,38,-1,-1,40,42,44,46,48,50,52,54,56,58,60,62,64,66,68,70,72,74,76,-1,78,80,82,84,86,88,90,92,94,96,98,100,102,104,106,108,110,112,-1,-1,-1,-1,-1,-1,-1,-1,-1,-1,-1,-1,-1,-1,-1,-1,-1,-1,-1,-1,-1,-1,-1,-1,-1,-1,-1,-1,-1,-1,-1,-1,-1,-1,-1,-1,-1,-1,-1,-1,-1,-1,-1,-1,-1,-1,-1,-1,-1,-1,-1,-1,-1,-1],"split_conditions":[-1.3471508E-1,2.0819853E-1,-2.2956783E-1,2.304245E-1,-1.0138026E-1,-3.2378286E-1,-1.5052152E-1,2.0355144E-1,3.334357E-1,-1.5376247E-1,-9.819264E-3,-3.2132536E-2,-1.9121808E-1,-3.3126885E-1,-1.3028659E-1,2.605152E-1,-2.2478446E-1,5.7887614E-2,-7.640096E-1,7.875173E-3,-7.629516E-2,7.51774E-2,4.7549683E-1,-3.168386E-2,-4.2952758E-1,-2.0869085E-1,-2.0860964E-1,-9.466635E-2,3.0070692E-1,-2.7227357E-1,-1.6288012E-1,2.727204E-1,-1.4499658E-1,3.5078326E-1,-1.2284063E-1,9.8131165E-2,2.0516238E-1,2.7044582E-1,-5.9438396E-1,-1.5334931E-2,-4.1726973E-2,-6.727579E-2,5.5530082E-2,7.934518E-2,5.4916257E-1,3.550585E-1,1.5226018E-1,1.5862194E-1,2.4790934E-1,-3.0643523E-1,-2.809588E-1,1.3916664E-1,-3.9609426E-1,-1.7329612E-1,-1.6663402E-2,1.5542316E-1,-1.551562E-1,1.2253527E-1,-2.6506886E-2,-4.398125E-2,3.7967857E-2,-8.658577E-2,-5.2704573E-2,-8.786477E-2,-1.1534746E-2,-8.599614E-2,-5.713841E-2,-5.997191E-2,6.7598075E-3,-7.170046E-2,-8.464002E-2,2.5142906E-2,-5.0637167E-2,-1.1647857E-2,-8.9433745E-2,2.6407838E-2,-2.7834384E-2,2.6577327E-2,7.484211E-2,-1.8921403E-2,7.8001632E-3,5.8917005E-2,4.54475E-2,3.6236774E-2,-3.4101553E-2,4.8652694E-2,-4.739973E-2,4.255247E-2,2.2649033E-2,5.7932425E-2,2.6807183E-4,2.5955988E-2,4.0332105E-2,4.5871135E-2,2.2982104E-2,1.7231986E-2,5.6517976E-3,1.2061948E-2,3.491818E-2,4.946973E-2,2.8789094E-2,1.2109958E-2,-3.708067E-3,9.653298E-3,3.1728696E-2,1.8532332E-3,2.4266794E-2,-1.0228743E-3,-1.2085713E-2,-4.9041566E-2,-8.119058E-2,-3.6511995E-2,-2.1299195E-2],"split_indices":[60,96,78,37,94,5,55,19,37,97,61,38,81,55,5,89,2,19,16,0,0,83,2,29,55,38,83,45,95,5,96,53,74,14,77,71,35,3,54,1,0,64,11,50,53,3,60,23,20,63,78,54,5,83,85,88,25,19,65,0,0,0,0,0,0,0,0,0,0,0,0,0,0,0,0,0,0,0,0,0,0,0,0,0,0,0,0,0,0,0,0,0,0,0,0,0,0,0,0,0,0,0,0,0,0,0,0,0,0,0,0,0,0],"split_type":[0,0,0,0,0,0,0,0,0,0,0,0,0,0,0,0,0,0,0,0,0,0,0,0,0,0,0,0,0,0,0,0,0,0,0,0,0,0,0,0,0,0,0,0,0,0,0,0,0,0,0,0,0,0,0,0,0,0,0,0,0,0,0,0,0,0,0,0,0,0,0,0,0,0,0,0,0,0,0,0,0,0,0,0,0,0,0,0,0,0,0,0,0,0,0,0,0,0,0,0,0,0,0,0,0,0,0,0,0,0,0,0,0],"sum_hessian":[2.4342291E4,1.9525907E3,2.2389701E4,1.908007E3,4.4583702E1,7.3944463E3,1.4995254E4,6.334812E2,1.2745258E3,6.5072308E0,3.807647E1,2.2273245E3,5.167122E3,9.443115E3,5.5521387E3,3.963729E2,2.3710832E2,5.6769965E2,7.068261E2,1.893661E0,4.6135697E0,1.6729435E1,2.1347036E1,8.320781E2,1.3952462E3,9.8217957E2,4.1849424E3,1.2704858E3,8.1726294E3,3.5330789E3,2.0190599E3,3.39623E2,5.674991E1,1.6088226E2,7.622605E1,4.159925E1,5.261004E2,2.9976013E0,7.0382855E2,1.4722581E1,2.006853E0,1.8943819E1,2.403218E0,5.52429E2,2.796491E2,1.5676793E2,1.2384783E3,1.0066266E2,8.815169E2,9.1520416E2,3.2697383E3,5.13593E2,7.5689276E2,6.130953E3,2.0416763E3,7.114604E2,2.8216184E3,8.286999E1,1.93619E3,3.336171E2,6.005903E0,4.2483208E1,1.42667E1,1.5977171E2,1.1105431E0,2.0498205E1,5.5727848E1,3.797852E1,3.62073E0,1.5076738E2,3.7533304E2,1.8984069E0,1.0991944E0,1.2398535E0,7.025887E2,1.2929081E1,1.7935004E0,6.02906E0,1.2914759E1,1.0145856E0,1.3886325E0,1.3731247E2,4.1511658E2,2.7547928E2,4.1698365E0,1.555771E2,1.1908283E0,1.4717043E2,1.0913079E3,9.5387024E1,5.275629E0,5.8148914E2,3.0002777E2,9.963093E1,8.1557324E2,1.4999193E3,1.7698188E3,4.0511475E2,1.0847828E2,1.2652415E2,6.303686E2,1.0510107E3,5.0799424E3,1.8077294E3,2.339468E2,5.518004E2,1.5965997E2,6.3696185E2,2.1846567E3,2.5996506E1,5.687348E1,3.1551498E2,1.6206749E3],"tree_param":{"num_deleted":"0","num_feature":"100","num_nodes":"113","size_leaf_vector":"0"}},{"base_weights":[4.37671E-11,-6.927415E-1,6.3308634E-2,-4.366624E-1,-7.877634E-1,2.1713656E-1,-1.1992953E-2,-5.1399195E-1,2.903209E-1,-7.324807E-1,-8.4679836E-1,3.2172716E-1,1.7236292E-1,7.637582E-2,-1.009604E-1,-4.057828E-1,-7.44757E-1,1.5008352E-2,4.9139023E-1,-6.490168E-1,-8.0797076E-1,-8.443602E-2,-8.497024E-1,4.4813913E-1,2.7813828E-1,3.2129657E-1,1.3668689E-1,2.519484E-1,3.953893E-2,-2.8485922E-2,-2.090222E-1,-6.7952734E-1,-3.4871766E-1,-7.5987285E-1,-1.9488001E-2,-1.6117352E-1,3.4205264E-1,6.255606E-1,1.2287407E-1,-8.07683E-1,-5.6632566E-1,-8.0930287E-1,-1.4056773E-1,-2.950728E-1,2.1056423E-1,-1.3493432E-1,-8.5054606E-1,-1.630695E-1,4.5613536E-1,3.917224E-1,2.3856528E-1,3.8955933E-1,2.5800073E-1,2.4724774E-1,1.058499E-1,1.7248327E-1,3.1825656E-1,4.7668125E-3,1.3092808E-1,7.226706E-2,-6.428867E-2,-5.687271E-1,-1.9132595E-1,-6.982662E-1,1.7147493E-1,3.985472E-1,-3.6757064E-1,-6.577541E-1,-8.485995E-1,-3.423007E-1,2.482617E-1,5.2924544E-2,-5.777377E-1,5.701673E-1,-1.0473533E-1,6.943101E-1,-8.6722754E-2,-1.5941276E-1,3.809949E-1,-8.2219064E-1,-4.05175E-1,-7.727493E-1,-4.7444186E-1,-8.117293E-1,-3.0827525E-1,-8.513132E-1,-1.5709518E-1,-5.1671135E-1,1.3871796E-1,4.7221014E-1,2.5055954E-1,3.494728E-1,5.5343515E-1,3.3644155E-1,1.844269E-1,4.0314057E-1,6.708995E-2,9.980006E-2,2.8908226E-1,1.7340423E-1,3.0167347E-1,1.6300875E-1,5.7815302E-2,1.3584061E-1,3.4353733E-1,4.539693E-1,2.899318E-1,1.3643488E-1,-2.3242706E-2,1.0357293E-1,3.2882842E-1,3.5825085E-2,2.0870423E-1,-2.4051867E-2,-1.1020572E-1,-8.352499E-1,-4.594649E-1,-2.956712E-1,-1.685662E-1],"categories":[],"categories_nodes":[],"categories_segments":[],"categories_sizes":[],"default_left":[1,1,1,1,1,1,1,1,1,1,1,1,1,1,1,1,1,1,1,1,1,1,1,1,1,1,1,1,1,1,1,1,1,1,1,1,1,1,1,1,1,1,0,0,0,0,1,1,1,1,1,1,1,1,1,1,1,1,1,1,1,1,1,0,0,0,0,0,0,0,0,0,0,0,0,0,0,0,0,0,0,0,0,0,0,0,0,0,0,0,0,0,0,0,0,0,0,0,0,0,0,0,0,0,0,0,0,0,0,0,0,0,0,0,0,0,0,0,0],"id":2,"left_children":[1,3,5,7,9,11,13,15,17,19,21,23,25,27,29,31,33,35,37,39,41,43,45,47,49,51,53,55,57,59,61,63,65,67,69,71,73,75,77,79,81,83,-1,-1,-1,-1,85,87,89,91,93,95,97,99,101,103,105,107,109,111,113,115,117,-1,-1,-1,-1,-1,-1,-1,-1,-1,-1,-1,-1,-1,-1,-1,-1,-1,-1,-1,-1,-1,-1,-1,-1,-1,-1,-1,-1,-1,-1,-1,-1,-1,-1,-1,-1,-1,-1,-1,-1,-1,-1,-1,-1,-1,-1,-1,-1,-1,-1,-1,-1,-1,-1,-1,-1],"loss_changes":[1.0661846E3,4.9190613E1,2.5802545E2,3.1247566E1,4.2213135E0,3.4226074E1,1.1758693E2,1.2192154E1,2.9721494E0,4.3492737E0,1.5023499E0,1.1960632E1,2.720462E1,4.8519657E1,5.8363327E1,5.118435E0,1.7231598E0,1.4235457E0,1.4595866E0,4.4290314E0,2.4368286E-1,2.9878253E-1,3.1225586E-1,2.814865E0,7.2491074E0,4.1783752E0,1.4085159E1,6.8008957E0,1.9712652E1,1.6100782E1,1.8934921E1,1.0459919E0,4.1720924E0,8.486557E-1,4.534352E-1,1.4677362E0,9.3978775E-1,1.1637888E0,7.5574654E-1,3.9826965E-1,4.340637E0,2.373352E-1,0E0,0E0,0E0,0E0,2.4249268E-1,9.2309624E-1,1.7115936E0,2.6797104E0,6.3708954E0,2.0510406E0,2.5123672E0,3.5724564E0,8.881058E0,3.6765842E0,2.5903015E0,1.6579489E1,9.22175E0,5.8117228E0,6.0809784E0,3.6866112E0,6.725609E0,0E0,0E0,0E0,0E0,0E0,0E0,0E0,0E0,0E0,0E0,0E0,0E0,0E0,0E0,0E0,0E0,0E0,0E0,0E0,0E0,0E0,0E0,0E0,0E0,0E0,0E0,0E0,0E0,0E0,0E0,0E0,0E0,0E0,0E0,0E0,0E0,0E0,0E0,0E0,0E0,0E0,0E0,0E0,0E0,0E0,0E0,0E0,0E0,0E0,0E0,0E0,0E0,0E0,0E0,0E0,0E0],"parents":[2147483647,0,0,1,1,2,2,3,3,4,4,5,5,6,6,7,7,8,8,9,9,10,10,11,11,12,12,13,13,14,14,15,15,16,16,17,17,18,18,19,19,20,20,21,21,22,22,23,23,24,24,25,25,26,26,27,27,28,28,29,29,30,30,31,31,32,32,33,33,34,34,35,35,36,36,37,37,38,38,39,39,40,40,41,41,46,46,47,47,48,48,49,49,50,50,51,51,52,52,53,53,54,54,55,55,56,56,57,57,58,58,59,59,60,60,61,61,62,62],"right_children":[2,4,6,8,10,12,14,16,18,20,22,24,26,28,30,32,34,36,38,40,42,44,46,48,50,52,54,56,58,60,62,64,66,68,70,72,74,76,78,80,82,84,-1,-1,-1,-1,86,88,90,92,94,96,98,100,102,104,106,108,110,112,114,116,118,-1,-1,-1,-1,-1,-1,-1,-1,-1,-1,-1,-1,-1,-1,-1,-1,-1,-1,-1,-1,-1,-1,-1,-1,-1,-1,-1,-1,-1,-1,-1,-1,-1,-1,-1,-1,-1,-1,-1,-1,-1,-1,-1,-1,-1,-1,-1,-1,-1,-1,-1,-1,-1,-1,-1,-1],"split_conditions":[-1.1531554E-1,1.9017474E-1,-2.2956783E-1,1.0432032E-1,3.334357E-1,-3.2377E-1,-1.8245807E-1,1.882861E-1,-9.728348E-3,2.1433932E-1,-7.640096E-1,-7.8660466E-2,-1.9121808E-1,-3.3126885E-1,-1.6651359E-1,-3.408295E-1,1.8869197E-1,2.855333E-1,-8.0425665E-2,-3.3853108E-1,6.8321466E-1,4.7301807E-2,-5.390337E-1,-3.3254316E-1,-3.328555E-1,-3.0904707E-2,-2.0865747E-1,-7.469716E-2,2.977513E-1,-2.7195135E-1,-9.876877E-2,1.0604235E-1,-2.1491289E-1,1.0076669E-1,-1.6721821E-1,-8.463667E-2,4.1101158E-2,2.6064467E-1,2.1407405E-2,-8.5400995E-3,-1.3878162E-1,1.6672789E-1,-1.4056774E-2,-2.950728E-2,2.1056423E-2,-1.3493433E-2,5.889981E-1,-1.0411104E-1,4.2698956E-1,-8.369458E-2,-8.578482E-2,2.555261E-1,-1.3336555E-2,-1.9384383E-1,-2.809588E-1,1.5209478E-1,-3.9609426E-1,-1.7713016E-1,-1.764836E-2,1.4314206E-1,-1.21552214E-1,-1.7725605E-1,2.6224073E-2,-6.9826625E-2,1.7147494E-2,3.985472E-2,-3.6757063E-2,-6.577542E-2,-8.485995E-2,-3.4230072E-2,2.482617E-2,5.2924543E-3,-5.777377E-2,5.701673E-2,-1.04735335E-2,6.9431014E-2,-8.672276E-3,-1.5941275E-2,3.809949E-2,-8.2219064E-2,-4.05175E-2,-7.727493E-2,-4.7444187E-2,-8.1172936E-2,-3.0827526E-2,-8.513132E-2,-1.5709518E-2,-5.1671136E-2,1.3871796E-2,4.7221016E-2,2.5055954E-2,3.494728E-2,5.5343516E-2,3.3644155E-2,1.844269E-2,4.031406E-2,6.7089954E-3,9.980006E-3,2.8908227E-2,1.7340424E-2,3.0167347E-2,1.6300876E-2,5.7815304E-3,1.35840615E-2,3.4353733E-2,4.539693E-2,2.899318E-2,1.3643488E-2,-2.3242708E-3,1.0357293E-2,3.2882843E-2,3.5825085E-3,2.0870423E-2,-2.4051869E-3,-1.1020572E-2,-8.3524995E-2,-4.594649E-2,-2.956712E-2,-1.685662E-2],"split_indices":[60,37,78,94,37,5,55,19,61,19,16,38,81,55,5,67,37,87,89,2,56,6,64,48,55,38,83,45,95,5,96,74,89,84,74,72,47,46,36,96,68,27,0,0,0,0,44,80,53,66,93,65,42,66,78,54,5,83,85,88,25,95,95,0,0,0,0,0,0,0,0,0,0,0,0,0,0,0,0,0,0,0,0,0,0,0,0,0,0,0,0,0,0,0,0,0,0,0,0,0,0,0,0,0,0,0,0,0,0,0,0,0,0,0,0,0,0,0,0],"split_type":[0,0,0,0,0,0,0,0,0,0,0,0,0,0,0,0,0,0,0,0,0,0,0,0,0,0,0,0,0,0,0,0,0,0,0,0,0,0,0,0,0,0,0,0,0,0,0,0,0,0,0,0,0,0,0,0,0,0,0,0,0,0,0,0,0,0,0,0,0,0,0,0,0,0,0,0,0,0,0,0,0,0,0,0,0,0,0,0,0,0,0,0,0,0,0,0,0,0,0,0,0,0,0,0,0,0,0,0,0,0,0,0,0,0,0,0,0,0,0],"sum_hessian":[2.4308746E4,2.0346852E3,2.227406E4,5.5218115E2,1.482504E3,7.319573E3,1.4954487E4,4.9935727E2,5.282389E1,7.7250543E2,7.099986E2,2.1922715E3,5.127302E3,7.5025576E3,7.4519297E3,3.418276E2,1.5752968E2,2.2749273E1,3.0074617E1,3.7143457E2,4.0107083E2,2.8084767E0,7.071901E2,5.597272E2,1.6325442E3,9.893098E2,4.1379917E3,1.3001105E3,6.202447E3,4.461183E3,2.9907463E3,5.7084084E1,2.8474353E2,1.5426678E2,3.2628975E0,1.511426E1,7.6350145E0,2.1536161E1,8.538457E0,1.2425296E2,2.4718163E2,4.0005972E2,1.0110987E0,1.6383864E0,1.1700904E0,1.0234221E0,7.061667E2,6.9777164E0,5.5274945E2,4.195204E2,1.2130238E3,4.7349963E2,5.158102E2,9.0091064E2,3.2370813E3,5.930216E2,7.0708887E2,4.493713E3,1.7087343E3,1.1693844E3,3.2917988E3,1.387753E2,2.8519712E3,5.60298E1,1.0542816E0,6.511485E0,2.7823203E2,7.56322E1,7.8634575E1,1.353098E0,1.9097995E0,1.055985E1,4.5544095E0,4.8715963E0,2.7634182E0,1.9663477E1,1.8726835E0,4.260971E0,4.2774854E0,1.18923904E2,5.329052E0,7.385376E1,1.7332787E2,3.9751443E2,2.5452914E0,7.0515894E2,1.0077366E0,2.8849237E0,4.092793E0,5.114594E2,4.1290024E1,3.3512543E2,8.439496E1,4.301483E2,7.8287555E2,4.541234E2,1.9376226E1,8.5391235E1,4.3041895E2,3.840403E2,5.168703E2,1.4770588E3,1.7600223E3,4.8987607E2,1.0314554E2,1.19499916E2,5.875889E2,7.875765E2,3.7061362E3,1.502563E3,2.0617126E2,9.2388104E2,2.4550339E2,1.7552281E3,1.5365707E3,3.841798E1,1.00357315E2,5.0853424E2,2.3434368E3],"tree_param":{"num_deleted":"0","num_feature":"100","num_nodes":"119","size_leaf_vector":"0"}},{"base_weights":[7.579083E-11,-6.6462153E-1,5.988218E-2,-7.0815444E-1,-1.6026846E-1,2.0784144E-1,-1.2854768E-2,-5.909382E-1,-7.8229123E-1,-4.4237006E-1,2.3732606E-1,3.0811185E-1,1.6413942E-1,8.1597485E-2,-9.153755E-2,-4.8448104E-1,-7.467639E-1,-7.359598E-1,-8.1126684E-1,-7.401955E-1,-3.2245898E-1,4.866298E-2,4.4368145E-1,2.6883447E-1,4.435123E-1,3.0948013E-1,1.2926254E-1,2.4027199E-1,4.495563E-2,-2.1533739E-2,-1.9413972E-1,-6.7150426E-1,-4.2105132E-1,-8.135762E-1,-6.638782E-1,-7.581922E-1,-5.479383E-1,-8.120155E-1,-1.5186988E-1,-7.973514E-1,2.5974765E-1,5.071743E-1,-3.4381372E-1,-1.1066468E-1,3.4141576E-1,5.095727E-1,-2.3015286E-1,3.934873E-1,2.3808298E-1,1.9928966E-1,4.5814854E-1,5.084728E-1,2.8677762E-1,2.3004195E-1,9.992947E-2,1.654678E-1,3.022542E-1,1.1032085E-2,1.3079493E-1,6.6155724E-2,-5.6067873E-2,-3.3663493E-1,-1.596238E-1,-7.294362E-1,-4.5484802E-1,-6.8132126E-1,-3.969589E-1,-8.1940705E-1,-2.4752596E-1,-8.020283E-1,-6.050733E-1,-7.6111645E-1,-1.0443054E-1,-7.1230733E-1,-3.225575E-1,-2.7546945E-1,-8.127738E-1,-1.5894614E-1,-8.1858253E-1,-6.517196E-1,-2.4991783E-1,2.8427446E-1,-2.300546E-1,6.245257E-1,9.657563E-2,5.8640736E-1,1.3333187E-1,1.6795363E-1,-4.9746153E-1,5.773392E-1,3.4744358E-1,3.796236E-1,2.1287344E-1,-2.6768181E-2,4.1784078E-1,3.5270965E-1,4.9637383E-1,5.6515306E-1,2.702691E-1,2.3965673E-1,3.727598E-1,3.1033483E-1,1.805178E-1,1.5744436E-1,5.233557E-2,3.3974987E-1,1.2903962E-1,3.7469697E-1,2.4904864E-1,1.7822835E-1,-1.0479251E-2,1.0303587E-1,3.2658616E-1,3.0748101E-2,2.0697291E-1,2.2342214E-3,-8.709138E-2,-2.9561317E-1,-6.743235E-1,-1.6881613E-1,9.424609E-2],"categories":[],"categories_nodes":[],"categories_segments":[],"categories_sizes":[],"default_left":[1,1,1,1,1,1,1,1,1,1,1,1,1,1,1,1,1,1,1,1,1,1,1,1,1,1,1,1,1,1,1,1,1,1,1,1,1,1,0,1,0,0,1,1,1,1,1,1,1,1,1,1,1,1,1,1,1,1,1,1,1,1,1,0,0,0,0,0,0,0,0,0,0,0,0,0,0,0,0,0,0,0,0,0,0,0,0,0,0,0,0,0,0,0,0,0,0,0,0,0,0,0,0,0,0,0,0,0,0,0,0,0,0,0,0,0,0,0,0,0,0],"id":3,"left_children":[1,3,5,7,9,11,13,15,17,19,21,23,25,27,29,31,33,35,37,39,41,43,45,47,49,51,53,55,57,59,61,63,65,67,69,71,73,75,-1,77,-1,-1,79,81,83,85,87,89,91,93,95,97,99,101,103,105,107,109,111,113,115,117,119,-1,-1,-1,-1,-1,-1,-1,-1,-1,-1,-1,-1,-1,-1,-1,-1,-1,-1,-1,-1,-1,-1,-1,-1,-1,-1,-1,-1,-1,-1,-1,-1,-1,-1,-1,-1,-1,-1,-1,-1,-1,-1,-1,-1,-1,-1,-1,-1,-1,-1,-1,-1,-1,-1,-1,-1,-1,-1],"loss_changes":[9.6508673E2,4.38916E1,2.3940335E2,1.5568359E1,1.811173E1,3.207614E1,1.1084706E2,1.1562027E1,9.157715E-1,3.1275768E0,2.5978231E0,1.170993E1,2.5853577E1,3.940007E1,5.8438965E1,4.8169785E0,1.0653076E0,1.4420929E0,2.1411133E-1,1.7093868E0,1.3963685E0,1.7295992E0,1.5385737E0,6.5251465E0,1.6909637E0,4.3169403E0,1.2160393E1,5.845001E0,1.6037819E1,1.4654227E1,1.617649E1,1.0136299E0,1.759304E0,3.123169E-1,6.099968E-1,6.752472E-1,1.6445312E0,5.3833008E-2,0E0,2.1022892E-1,0E0,0E0,1.7984409E0,1.2085094E0,8.4273696E-1,7.737708E-1,4.6029747E-1,2.678814E0,4.870163E0,1.4914516E0,1.7177963E0,1.1956062E0,3.5124435E0,3.6355553E0,8.734808E0,3.6278706E0,2.5819778E0,1.4204707E1,8.445423E0,6.811506E0,6.2792177E0,8.70179E0,6.2196274E0,0E0,0E0,0E0,0E0,0E0,0E0,0E0,0E0,0E0,0E0,0E0,0E0,0E0,0E0,0E0,0E0,0E0,0E0,0E0,0E0,0E0,0E0,0E0,0E0,0E0,0E0,0E0,0E0,0E0,0E0,0E0,0E0,0E0,0E0,0E0,0E0,0E0,0E0,0E0,0E0,0E0,0E0,0E0,0E0,0E0,0E0,0E0,0E0,0E0,0E0,0E0,0E0,0E0,0E0,0E0,0E0,0E0,0E0],"parents":[2147483647,0,0,1,1,2,2,3,3,4,4,5,5,6,6,7,7,8,8,9,9,10,10,11,11,12,12,13,13,14,14,15,15,16,16,17,17,18,18,19,19,20,20,21,21,22,22,23,23,24,24,25,25,26,26,27,27,28,28,29,29,30,30,31,31,32,32,33,33,34,34,35,35,36,36,37,37,39,39,42,42,43,43,44,44,45,45,46,46,47,47,48,48,49,49,50,50,51,51,52,52,53,53,54,54,55,55,56,56,57,57,58,58,59,59,60,60,61,61,62,62],"right_children":[2,4,6,8,10,12,14,16,18,20,22,24,26,28,30,32,34,36,38,40,42,44,46,48,50,52,54,56,58,60,62,64,66,68,70,72,74,76,-1,78,-1,-1,80,82,84,86,88,90,92,94,96,98,100,102,104,106,108,110,112,114,116,118,120,-1,-1,-1,-1,-1,-1,-1,-1,-1,-1,-1,-1,-1,-1,-1,-1,-1,-1,-1,-1,-1,-1,-1,-1,-1,-1,-1,-1,-1,-1,-1,-1,-1,-1,-1,-1,-1,-1,-1,-1,-1,-1,-1,-1,-1,-1,-1,-1,-1,-1,-1,-1,-1,-1,-1,-1,-1,-1],"split_conditions":[-1.1531554E-1,-1.0615584E-1,-2.2956783E-1,2.5167492E-1,3.5099857E-2,-3.2239807E-1,-1.9332235E-1,2.0355144E-1,3.334357E-1,-2.8293997E-1,7.579453E-2,1.019354E-1,-1.9121808E-1,-3.316307E-1,-1.7360741E-1,-3.6265337E-1,-3.020023E-1,-1.515459E-1,5.889981E-1,2.7525795E-1,-1.5470082E-1,2.8177023E-1,5.656843E-1,-7.845255E-2,-3.0448854E-1,-2.0869085E-1,-2.0623103E-1,-7.469716E-2,2.97352E-1,-2.7195135E-1,2.6224073E-2,-1.3848013E-1,-2.1338801E-1,-1.6474164E-1,-4.0216732E-1,1.4142549E-1,-7.668318E-2,-7.640096E-1,-1.5186988E-2,-5.400382E-1,2.5974765E-2,5.0717432E-2,-7.015442E-2,-2.144381E-1,3.7849268E-1,7.3425695E-2,-9.5190406E-2,6.264654E-2,-3.8023663E-1,-2.6925874E-1,5.672063E-2,1.7866197E-1,2.4790934E-1,-4.2791754E-2,-2.809588E-1,-3.5040265E-1,-1.8008074E-1,-2.0193817E-1,-1.8661989E-2,1.4314206E-1,-1.1383508E-1,1.3032284E-1,1.7206535E-1,-7.294362E-2,-4.5484804E-2,-6.8132125E-2,-3.969589E-2,-8.19407E-2,-2.4752596E-2,-8.020283E-2,-6.0507327E-2,-7.6111645E-2,-1.0443054E-2,-7.123073E-2,-3.225575E-2,-2.7546946E-2,-8.1277385E-2,-1.5894614E-2,-8.1858255E-2,-6.5171964E-2,-2.4991784E-2,2.8427446E-2,-2.3005461E-2,6.2452573E-2,9.657564E-3,5.8640737E-2,1.33331865E-2,1.6795363E-2,-4.9746152E-2,5.773392E-2,3.474436E-2,3.796236E-2,2.1287344E-2,-2.6768183E-3,4.1784078E-2,3.5270967E-2,4.9637385E-2,5.6515306E-2,2.702691E-2,2.3965674E-2,3.727598E-2,3.1033484E-2,1.8051779E-2,1.5744437E-2,5.2335574E-3,3.3974987E-2,1.2903961E-2,3.7469696E-2,2.4904864E-2,1.7822836E-2,-1.0479251E-3,1.0303587E-2,3.2658618E-2,3.0748101E-3,2.0697292E-2,2.2342215E-4,-8.709138E-3,-2.9561317E-2,-6.743235E-2,-1.6881613E-2,9.424609E-3],"split_indices":[60,67,78,37,96,5,55,19,37,60,4,45,81,55,5,67,94,95,44,91,37,75,53,38,26,38,83,45,95,5,95,96,91,67,67,27,22,16,0,92,0,0,59,83,77,69,86,50,55,66,59,65,20,38,78,83,83,83,85,88,28,19,33,0,0,0,0,0,0,0,0,0,0,0,0,0,0,0,0,0,0,0,0,0,0,0,0,0,0,0,0,0,0,0,0,0,0,0,0,0,0,0,0,0,0,0,0,0,0,0,0,0,0,0,0,0,0,0,0,0,0],"split_type":[0,0,0,0,0,0,0,0,0,0,0,0,0,0,0,0,0,0,0,0,0,0,0,0,0,0,0,0,0,0,0,0,0,0,0,0,0,0,0,0,0,0,0,0,0,0,0,0,0,0,0,0,0,0,0,0,0,0,0,0,0,0,0,0,0,0,0,0,0,0,0,0,0,0,0,0,0,0,0,0,0,0,0,0,0,0,0,0,0,0,0,0,0,0,0,0,0,0,0,0,0,0,0,0,0,0,0,0,0,0,0,0,0,0,0,0,0,0,0,0,0],"sum_hessian":[2.4247027E4,2.0032473E3,2.2243781E4,1.8437051E3,1.595422E2,7.330482E3,1.4913299E4,7.177911E2,1.125914E3,9.325981E1,6.62824E1,2.2232903E3,5.1071914E3,6.777467E3,8.135832E3,4.2889035E2,2.8890076E2,4.4337122E2,6.825428E2,2.528532E1,6.7974495E1,3.527113E1,3.1011269E1,1.7256841E3,4.9760623E2,9.868531E2,4.1203384E3,1.2704279E3,5.507039E3,4.8369014E3,3.2989307E3,1.061929E2,3.2269745E2,1.5507924E2,1.3382152E2,3.937771E2,4.9594112E1,6.8153754E2,1.0052483E0,2.4109825E1,1.175494E0,1.1348681E0,6.683962E1,2.324323E1,1.2027901E1,2.847099E1,2.5402799E0,3.391452E2,1.3865388E3,2.8961771E1,4.6864444E2,9.886681E1,8.8798627E2,9.27363E2,3.1929753E3,5.7733356E2,6.930943E2,3.947946E3,1.559093E3,1.3664022E3,3.4704995E3,6.415614E2,2.6573691E3,8.192113E1,2.427178E1,2.5029102E1,2.9766833E2,1.5305505E2,2.02419E0,3.618156E1,9.763995E1,3.918601E2,1.9169973E0,2.7429472E1,2.2164639E1,1.4760156E0,6.800615E2,1.0491463E0,2.306068E1,1.4231252E1,5.260837E1,5.0748115E0,1.8168419E1,4.8588443E0,7.1690564E0,2.3178877E1,5.292111E0,1.1697867E0,1.3704932E0,6.561329E1,2.735319E2,2.0749359E2,1.1790453E3,1.4667744E1,1.4294027E1,1.2741524E2,3.4122922E2,7.875467E1,2.011214E1,5.760697E2,3.1191656E2,3.5177243E2,5.755906E2,1.4447535E3,1.7482219E3,9.837154E1,4.7896204E2,2.9093088E2,4.021634E2,4.4920752E2,3.4987385E3,1.3668315E3,1.9226154E2,1.0928341E3,2.7356808E2,1.2056548E3,2.2648445E3,5.7374E2,6.782144E1,2.5648345E3,9.253469E1],"tree_param":{"num_deleted":"0","num_feature":"100","num_nodes":"121","size_leaf_vector":"0"}},{"base_weights":[1.13503124E-10,-6.351291E-1,5.6947887E-2,-6.58796E-1,2.6092795E-1,1.9951004E-1,-1.2956159E-2,-7.134845E-1,-4.2942593E-1,-5.2060074E-1,3.825032E-1,2.937627E-1,1.5945487E-1,7.835311E-2,-8.945023E-2,-6.260486E-1,-7.5516707E-1,-3.4082612E-1,-6.706656E-1,-6.936342E-1,5.4066457E-2,7.582389E-2,5.223952E-1,2.5675496E-1,4.1006973E-1,2.9159102E-1,1.2812588E-1,2.307822E-1,4.4533145E-2,-2.2476735E-2,-1.8778695E-1,-5.241694E-1,-7.3053783E-1,-8.1569396E-2,-7.5683635E-1,1.7482072E-1,-3.5892093E-1,-7.078939E-1,-2.3274395E-1,1.7291628E-1,-4.6335596E-1,5.830797E-1,-1.747787E-1,3.4151757E-1,2.1883364E-1,4.515963E-1,3.062959E-1,3.6008736E-1,2.2713664E-1,2.2937831E-1,9.964552E-2,1.6879885E-1,3.0527025E-1,1.8062738E-1,2.4618346E-2,7.902571E-2,-5.1142115E-2,-5.141877E-1,-1.7348333E-1,-4.498452E-1,-7.107477E-1,-7.8933126E-1,-6.426577E-1,-2.923871E-1,2.0478965E-1,-7.1412545E-1,-7.8232855E-1,6.0201114E-1,-2.619197E-2,-3.3348987E-1,-6.716732E-1,-7.1530294E-1,-1.8848617E-1,-4.263977E-1,6.9481425E-2,5.071616E-1,-4.2559784E-2,1.5412359E-1,6.4136076E-1,-4.1652912E-1,1.422132E-1,3.8694566E-1,2.4302132E-1,3.267243E-1,1.8326092E-1,5.336615E-1,3.77849E-1,4.0921694E-1,1.8023013E-1,3.4120378E-1,5.892073E-1,2.538731E-1,3.9956473E-2,1.5312482E-1,2.788196E-1,2.4883457E-1,8.420486E-2,3.341541E-1,1.2552245E-1,4.8825687E-1,2.8000572E-1,1.14889115E-1,2.6652202E-1,-9.521106E-3,1.1488612E-1,2.256551E-1,4.0130462E-2,-2.280794E-2,-1.11353576E-1,-8.028485E-1,-4.2193034E-1,-2.3907551E-1,-1.3523251E-1],"categories":[],"categories_nodes":[],"categories_segments":[],"categories_sizes":[],"default_left":[1,1,1,1,1,1,1,1,1,1,1,1,1,1,1,1,1,1,1,0,0,1,1,1,1,1,1,1,1,1,1,1,1,1,1,1,1,1,1,1,0,1,1,1,1,1,1,1,1,1,1,1,1,1,1,1,1,1,1,0,0,0,0,0,0,0,0,0,0,0,0,0,0,0,0,0,0,0,0,0,0,0,0,0,0,0,0,0,0,0,0,0,0,0,0,0,0,0,0,0,0,0,0,0,0,0,0,0,0,0,0,0,0],"id":4,"left_children":[1,3,5,7,9,11,13,15,17,19,21,23,25,27,29,31,33,35,37,-1,-1,39,41,43,45,47,49,51,53,55,57,59,61,63,65,67,69,71,73,75,-1,77,79,81,83,85,87,89,91,93,95,97,99,101,103,105,107,109,111,-1,-1,-1,-1,-1,-1,-1,-1,-1,-1,-1,-1,-1,-1,-1,-1,-1,-1,-1,-1,-1,-1,-1,-1,-1,-1,-1,-1,-1,-1,-1,-1,-1,-1,-1,-1,-1,-1,-1,-1,-1,-1,-1,-1,-1,-1,-1,-1,-1,-1,-1,-1,-1,-1],"loss_changes":[8.7414526E2,4.234601E1,2.2103613E2,2.400122E1,5.129492E0,2.7503052E1,1.0395979E2,5.224365E0,7.799156E0,7.742307E-1,1.9116383E0,9.257095E0,2.1171326E1,3.4967777E1,5.333558E1,5.051407E0,1.1231079E0,2.644806E0,1.4631882E0,0E0,0E0,8.872187E-1,1.4161692E0,5.237793E0,2.117073E0,4.2497177E0,1.1924728E1,5.6358414E0,1.5049178E1,1.4025244E1,1.5229256E1,3.3136902E0,7.8170776E-1,2.8479186E-1,5.856323E-1,8.7912905E-1,1.905014E0,2.17453E-1,5.7472086E-1,1.0149736E0,0E0,6.213398E-1,3.0881515E-1,2.183857E0,4.3334007E0,2.0478287E0,1.9073248E0,1.8494911E0,2.53306E0,3.3834648E0,7.431942E0,4.7853775E0,2.4440727E0,3.9719524E0,1.4936206E1,6.0455165E0,6.409318E0,3.3160782E0,7.857971E0,0E0,0E0,0E0,0E0,0E0,0E0,0E0,0E0,0E0,0E0,0E0,0E0,0E0,0E0,0E0,0E0,0E0,0E0,0E0,0E0,0E0,0E0,0E0,0E0,0E0,0E0,0E0,0E0,0E0,0E0,0E0,0E0,0E0,0E0,0E0,0E0,0E0,0E0,0E0,0E0,0E0,0E0,0E0,0E0,0E0,0E0,0E0,0E0,0E0,0E0,0E0,0E0,0E0,0E0],"parents":[2147483647,0,0,1,1,2,2,3,3,4,4,5,5,6,6,7,7,8,8,9,9,10,10,11,11,12,12,13,13,14,14,15,15,16,16,17,17,18,18,21,21,22,22,23,23,24,24,25,25,26,26,27,27,28,28,29,29,30,30,31,31,32,32,33,33,34,34,35,35,36,36,37,37,38,38,39,39,41,41,42,42,43,43,44,44,45,45,46,46,47,47,48,48,49,49,50,50,51,51,52,52,53,53,54,54,55,55,56,56,57,57,58,58],"right_children":[2,4,6,8,10,12,14,16,18,20,22,24,26,28,30,32,34,36,38,-1,-1,40,42,44,46,48,50,52,54,56,58,60,62,64,66,68,70,72,74,76,-1,78,80,82,84,86,88,90,92,94,96,98,100,102,104,106,108,110,112,-1,-1,-1,-1,-1,-1,-1,-1,-1,-1,-1,-1,-1,-1,-1,-1,-1,-1,-1,-1,-1,-1,-1,-1,-1,-1,-1,-1,-1,-1,-1,-1,-1,-1,-1,-1,-1,-1,-1,-1,-1,-1,-1,-1,-1,-1,-1,-1,-1,-1,-1,-1,-1,-1],"split_conditions":[-1.1531554E-1,2.1914637E-1,-2.2956783E-1,-2.1054117E-1,-1.0138026E-1,-3.2378286E-1,-1.9332235E-1,2.5426048E-1,1.8856591E-1,1.2595746E-1,-2.535885E-2,9.6000165E-2,-1.9121808E-1,-3.337197E-1,-1.7360741E-1,2.142894E-1,-7.640096E-1,-1.8249059E-1,-4.0930316E-2,-6.936342E-2,5.4066456E-3,5.3404224E-1,1.8643837E-1,-3.3562392E-2,-1.5132666E-1,-3.1671893E-2,-2.0846409E-1,-4.4366054E-2,-2.0227274E-1,-2.8499085E-1,-9.876877E-2,1.3159329E-1,-3.020023E-1,4.7301807E-2,3.334357E-1,-9.12812E-2,1.959899E-1,1.4396343E-1,-2.3505187E-1,-3.693974E-1,-4.6335597E-2,-5.7414856E-2,2.4869705E-2,2.1840361E-1,-3.337161E-1,-6.527428E-2,-3.9692424E-2,2.5882888E-1,-9.8165356E-2,-2.0219272E-1,-1.5837547E-1,-2.959858E-1,-4.4323283E-1,1.945485E-1,2.9775935E-1,-1.1971137E-1,2.7420842E-3,-2.0944637E-1,8.534177E-2,-4.498452E-2,-7.107478E-2,-7.893313E-2,-6.426577E-2,-2.923871E-2,2.0478966E-2,-7.141255E-2,-7.8232855E-2,6.0201116E-2,-2.6191971E-3,-3.334899E-2,-6.716732E-2,-7.15303E-2,-1.8848618E-2,-4.2639773E-2,6.948143E-3,5.071616E-2,-4.2559784E-3,1.54123595E-2,6.413608E-2,-4.1652914E-2,1.422132E-2,3.8694568E-2,2.4302132E-2,3.267243E-2,1.8326093E-2,5.336615E-2,3.77849E-2,4.0921696E-2,1.8023012E-2,3.4120377E-2,5.892073E-2,2.5387311E-2,3.995647E-3,1.5312483E-2,2.788196E-2,2.4883457E-2,8.420486E-3,3.341541E-2,1.25522455E-2,4.882569E-2,2.8000573E-2,1.1488912E-2,2.6652202E-2,-9.521106E-4,1.1488612E-2,2.256551E-2,4.013046E-3,-2.280794E-3,-1.1135357E-2,-8.0284856E-2,-4.2193037E-2,-2.3907552E-2,-1.3523251E-2],"split_indices":[60,96,78,60,94,5,55,37,19,90,92,45,81,55,5,19,16,5,2,0,0,53,12,38,23,38,83,45,83,5,96,63,94,6,37,98,23,50,79,19,0,79,64,68,55,81,93,84,55,66,3,83,5,51,95,93,3,95,75,0,0,0,0,0,0,0,0,0,0,0,0,0,0,0,0,0,0,0,0,0,0,0,0,0,0,0,0,0,0,0,0,0,0,0,0,0,0,0,0,0,0,0,0,0,0,0,0,0,0,0,0,0,0],"split_type":[0,0,0,0,0,0,0,0,0,0,0,0,0,0,0,0,0,0,0,0,0,0,0,0,0,0,0,0,0,0,0,0,0,0,0,0,0,0,0,0,0,0,0,0,0,0,0,0,0,0,0,0,0,0,0,0,0,0,0,0,0,0,0,0,0,0,0,0,0,0,0,0,0,0,0,0,0,0,0,0,0,0,0,0,0,0,0,0,0,0,0,0,0,0,0,0,0,0,0,0,0,0,0,0,0,0,0,0,0,0,0,0,0],"sum_hessian":[2.4166184E4,1.9876908E3,2.2178494E4,1.9368002E3,5.0890587E1,7.296393E3,1.4882101E4,1.5622124E3,3.7458777E2,6.4090195E0,4.4481567E1,2.1741438E3,5.122249E3,6.784076E3,8.0980244E3,5.0949127E2,1.0527212E3,2.7573257E2,9.885517E1,4.7667284E0,1.6422908E0,1.4417249E1,3.0064318E1,1.6517732E3,5.223705E2,9.801151E2,4.1421343E3,1.2308264E3,5.55325E3,4.8179355E3,3.280089E3,2.6101373E2,2.4847754E2,2.7256193E0,1.0499955E3,9.054202E0,2.6667838E2,9.054163E1,8.313539E0,1.2792878E1,1.62437E0,2.7807505E1,2.2568142E0,5.0808475E2,1.1436885E3,3.7068427E2,1.5168623E2,4.7293518E2,5.0717996E2,9.077778E2,3.2343562E3,6.735855E2,5.572409E2,7.0785095E2,4.845399E3,1.0606123E3,3.757323E3,1.3623909E2,3.14385E3,1.8909715E2,7.191659E1,1.440941E2,1.0438344E2,1.5577513E0,1.167868E0,4.0329962E2,6.466959E2,2.258841E0,6.7953606E0,2.4853535E2,1.8143036E1,8.889642E1,1.6452103E0,4.816476E0,3.4970627E0,4.4838595E0,8.309019E0,3.7621393E0,2.4045364E1,1.1022159E0,1.1545985E0,3.4570935E2,1.6237541E2,2.8155588E2,8.6213257E2,1.72496E2,1.9818825E2,8.227238E1,6.941386E1,4.392244E2,3.371077E1,4.4347812E2,6.3701847E1,3.5868054E2,5.490972E2,3.0193344E2,2.9324229E3,1.3832742E2,5.352581E2,6.53799E1,4.9186102E2,4.0229654E2,3.055544E2,3.5163884E3,1.3290105E3,2.2135074E2,8.3926154E2,2.5559355E3,1.2013876E3,3.1131275E1,1.0510782E2,1.1561108E3,1.9877391E3],"tree_param":{"num_deleted":"0","num_feature":"100","num_nodes":"113","size_leaf_vector":"0"}},{"base_weights":[1.0619694E-10,-6.034358E-1,5.4662786E-2,-6.355596E-1,1.9251347E-1,1.9121876E-1,-1.2552938E-2,-4.7893077E-1,-7.059995E-1,-5.417244E-1,2.3567705E-1,2.7808493E-1,1.5174872E-1,7.608323E-2,-8.680395E-2,-3.89305E-1,-6.6318333E-1,-6.582504E-1,-7.519542E-1,-6.412174E-1,-1.5728696E-1,9.858463E-2,3.8677204E-1,2.5100732E-1,3.8585803E-1,2.681881E-1,1.2577394E-1,2.1663184E-1,4.4409726E-2,-2.32144E-2,-1.8027052E-1,-4.0294924E-1,4.0970957E-1,-7.2145647E-1,-5.465831E-1,-6.979362E-1,-5.1823753E-1,-7.526476E-1,-2.2091259E-1,2.083234E-1,-2.2732437E-1,5.1316786E-1,1.6673824E-1,3.5403576E-1,2.2442593E-1,4.2812306E-1,2.5491995E-1,3.951639E-1,2.274188E-1,2.0998831E-1,9.646696E-2,1.4229092E-1,2.741202E-1,1.5193327E-1,1.9281657E-2,7.620265E-2,-5.1306605E-2,-3.413779E-1,-1.5840209E-1,-6.366546E-1,-3.6375168E-1,5.794427E-1,1.1870002E-3,-7.257956E-1,-1.01165675E-1,-7.3094344E-1,-4.5758185E-1,-7.48469E-1,-6.519767E-1,-6.627628E-1,-3.5523742E-1,-2.520328E-1,-7.534103E-1,-2.8316683E-1,3.2048643E-1,3.3771586E-1,-3.4150875E-1,-1.1522171E-1,5.537489E-1,-8.183024E-2,4.3766573E-1,2.2252084E-1,3.9709643E-1,7.238284E-2,2.4019843E-1,1.774389E-1,4.55107E-1,3.4284106E-1,8.3398595E-2,4.894732E-1,3.0370235E-1,-3.5101753E-2,2.4296193E-1,2.5573695E-1,1.3851137E-1,1.4209665E-1,3.9956693E-2,6.8346836E-2,2.4835527E-1,3.4123674E-1,2.2634462E-1,1.20488204E-1,2.9370674E-1,-1.4609258E-2,1.0969138E-1,2.1132024E-1,3.9503243E-2,3.9892565E-3,-8.097495E-2,-3.0627713E-1,-6.965358E-1,-1.6573493E-1,1.3553189E-1],"categories":[],"categories_nodes":[],"categories_segments":[],"categories_sizes":[],"default_left":[1,1,1,1,1,1,1,1,1,1,1,1,1,1,1,1,1,1,1,0,0,1,1,1,1,1,1,1,1,1,1,1,1,1,1,1,1,1,0,1,1,1,1,1,1,1,1,1,1,1,1,1,1,1,1,1,1,1,1,0,0,0,0,0,0,0,0,0,0,0,0,0,0,0,0,0,0,0,0,0,0,0,0,0,0,0,0,0,0,0,0,0,0,0,0,0,0,0,0,0,0,0,0,0,0,0,0,0,0,0,0,0,0],"id":5,"left_children":[1,3,5,7,9,11,13,15,17,19,21,23,25,27,29,31,33,35,37,-1,-1,39,41,43,45,47,49,51,53,55,57,59,61,63,65,67,69,71,-1,73,75,77,79,81,83,85,87,89,91,93,95,97,99,101,103,105,107,109,111,-1,-1,-1,-1,-1,-1,-1,-1,-1,-1,-1,-1,-1,-1,-1,-1,-1,-1,-1,-1,-1,-1,-1,-1,-1,-1,-1,-1,-1,-1,-1,-1,-1,-1,-1,-1,-1,-1,-1,-1,-1,-1,-1,-1,-1,-1,-1,-1,-1,-1,-1,-1,-1,-1],"loss_changes":[7.9468085E2,5.1288574E1,2.0276675E2,2.0885986E1,2.61227E0,2.494162E1,9.744222E1,9.6479645E0,2.4121094E0,7.723212E-2,1.5100617E0,6.543213E0,1.5126503E1,3.0035698E1,4.78804E1,4.591152E0,9.2983246E-1,3.2931824E0,7.974243E-2,0E0,0E0,1.4968553E0,8.937526E-1,4.908539E0,2.4090195E0,4.6382523E0,1.0099228E1,5.264694E0,1.48822365E1,1.339777E1,1.1437981E1,3.4297104E0,5.0634027E-1,2.679062E-1,7.9880714E-1,6.955414E-1,3.2781296E0,6.472778E-2,0E0,1.7909411E0,8.0486166E-1,6.2186146E-1,1.000774E0,2.017208E0,3.4611435E0,2.2361946E0,1.6831341E0,1.7543907E0,2.839161E0,3.4230843E0,7.842123E0,4.2436914E0,2.1633034E0,4.6164474E0,1.3688085E1,5.232957E0,6.1355906E0,4.6357765E0,6.2167435E0,0E0,0E0,0E0,0E0,0E0,0E0,0E0,0E0,0E0,0E0,0E0,0E0,0E0,0E0,0E0,0E0,0E0,0E0,0E0,0E0,0E0,0E0,0E0,0E0,0E0,0E0,0E0,0E0,0E0,0E0,0E0,0E0,0E0,0E0,0E0,0E0,0E0,0E0,0E0,0E0,0E0,0E0,0E0,0E0,0E0,0E0,0E0,0E0,0E0,0E0,0E0,0E0,0E0,0E0],"parents":[2147483647,0,0,1,1,2,2,3,3,4,4,5,5,6,6,7,7,8,8,9,9,10,10,11,11,12,12,13,13,14,14,15,15,16,16,17,17,18,18,21,21,22,22,23,23,24,24,25,25,26,26,27,27,28,28,29,29,30,30,31,31,32,32,33,33,34,34,35,35,36,36,37,37,39,39,40,40,41,41,42,42,43,43,44,44,45,45,46,46,47,47,48,48,49,49,50,50,51,51,52,52,53,53,54,54,55,55,56,56,57,57,58,58],"right_children":[2,4,6,8,10,12,14,16,18,20,22,24,26,28,30,32,34,36,38,-1,-1,40,42,44,46,48,50,52,54,56,58,60,62,64,66,68,70,72,-1,74,76,78,80,82,84,86,88,90,92,94,96,98,100,102,104,106,108,110,112,-1,-1,-1,-1,-1,-1,-1,-1,-1,-1,-1,-1,-1,-1,-1,-1,-1,-1,-1,-1,-1,-1,-1,-1,-1,-1,-1,-1,-1,-1,-1,-1,-1,-1,-1,-1,-1,-1,-1,-1,-1,-1,-1,-1,-1,-1,-1,-1,-1,-1,-1,-1,-1,-1],"split_conditions":[-1.2932086E-1,3.0545664E-1,-2.2956783E-1,2.0860288E-1,-3.8450098E-1,-3.371918E-1,-1.9332235E-1,1.9150247E-1,3.334357E-1,1.716961E-1,1.10371426E-1,1.2697384E-1,-3.0811077E-1,-3.3136427E-1,-1.7360741E-1,2.626441E-1,-2.2772864E-1,-2.060173E-1,5.772127E-1,-6.4121746E-2,-1.5728695E-2,3.310538E-1,8.5901454E-2,-1.5085623E-1,-2.4710241E-1,1.1969347E-1,-1.5501755E-1,-7.469716E-2,-1.771188E-1,-2.8499085E-1,-1.5311953E-2,-2.2790621E-1,1.801008E-2,3.5078326E-1,-1.7550728E-1,-1.9116592E-1,-2.2969526E-1,-7.640096E-1,-2.209126E-2,2.2499334E-2,-2.7501756E-1,7.049434E-2,2.0191543E-1,2.0021152E-2,-3.8565487E-1,-2.7349347E-1,-4.8915632E-2,-1.12825915E-1,-2.2751603E-1,3.491016E-2,-2.5028896E-1,8.922736E-2,3.7321024E-2,7.884371E-2,2.9775935E-1,-1.1963706E-1,-1.1383508E-1,2.3086469E-1,1.9813633E-1,-6.3665465E-2,-3.637517E-2,5.7944268E-2,1.1870002E-4,-7.257956E-2,-1.0116568E-2,-7.3094346E-2,-4.5758184E-2,-7.48469E-2,-6.519767E-2,-6.627628E-2,-3.5523742E-2,-2.5203278E-2,-7.534103E-2,-2.8316682E-2,3.2048643E-2,3.3771586E-2,-3.4150876E-2,-1.1522171E-2,5.537489E-2,-8.183024E-3,4.3766573E-2,2.2252085E-2,3.9709643E-2,7.2382838E-3,2.4019843E-2,1.7743891E-2,4.55107E-2,3.4284107E-2,8.33986E-3,4.894732E-2,3.0370235E-2,-3.5101753E-3,2.4296192E-2,2.5573695E-2,1.3851138E-2,1.4209665E-2,3.9956695E-3,6.8346835E-3,2.4835527E-2,3.4123674E-2,2.2634462E-2,1.2048821E-2,2.9370675E-2,-1.4609258E-3,1.0969139E-2,2.1132024E-2,3.9503244E-3,3.9892565E-4,-8.097495E-3,-3.0627713E-2,-6.9653586E-2,-1.6573494E-2,1.3553189E-2],"split_indices":[67,96,78,37,0,78,55,19,37,94,82,45,55,55,5,94,2,96,44,0,0,54,84,38,5,2,81,45,83,5,95,74,78,14,51,21,95,16,0,64,67,60,84,20,66,26,81,28,45,38,5,14,38,44,95,93,28,19,33,0,0,0,0,0,0,0,0,0,0,0,0,0,0,0,0,0,0,0,0,0,0,0,0,0,0,0,0,0,0,0,0,0,0,0,0,0,0,0,0,0,0,0,0,0,0,0,0,0,0,0,0,0,0],"split_type":[0,0,0,0,0,0,0,0,0,0,0,0,0,0,0,0,0,0,0,0,0,0,0,0,0,0,0,0,0,0,0,0,0,0,0,0,0,0,0,0,0,0,0,0,0,0,0,0,0,0,0,0,0,0,0,0,0,0,0,0,0,0,0,0,0,0,0,0,0,0,0,0,0,0,0,0,0,0,0,0,0,0,0,0,0,0,0,0,0,0,0,0,0,0,0,0,0,0,0,0,0,0,0,0,0,0,0,0,0,0,0,0,0],"sum_hessian":[2.4089836E4,2.0001089E3,2.2089727E4,1.9227115E3,7.739742E1,7.2858647E3,1.4803862E4,5.9887134E2,1.3238402E3,3.6560137E0,7.374141E1,2.2743662E3,5.011499E3,6.748229E3,8.055634E3,4.0498688E2,1.9388445E2,6.5676E2,6.670802E2,2.3737469E0,1.282267E0,3.9528572E1,3.4212837E1,1.8203408E3,4.5402524E2,9.1234174E2,4.099157E3,1.239998E3,5.508231E3,4.7947773E3,3.2608564E3,3.9867465E2,6.312223E0,1.2581737E2,6.806708E1,5.0861212E2,1.4814784E2,6.657936E2,1.28664E0,2.9841316E1,9.687256E0,2.088403E1,1.3328806E1,3.7080328E2,1.4495376E3,3.4151816E2,1.1250707E2,2.1962566E2,6.9271606E2,1.0566577E3,3.0424993E3,5.422561E2,6.9774194E2,1.0424629E3,4.465768E3,1.0559841E3,3.738793E3,3.8797656E2,2.87288E3,5.5073154E1,3.436015E2,4.163842E0,2.1483805E0,1.24774445E2,1.0429214E0,1.9813002E1,4.8254078E1,2.3497235E2,2.736398E2,7.689887E1,7.124898E1,1.51698E0,6.6427655E2,5.261445E0,2.457987E1,1.2994257E0,8.38783E0,1.1552901E0,1.972874E1,7.3152385E0,6.013567E0,9.298334E1,2.7781995E2,1.3676328E2,1.3127743E3,3.3925137E1,3.0759302E2,7.37198E1,3.8787273E1,1.0598699E2,1.1363867E2,3.8650917E1,6.540651E2,6.4271295E2,4.1394482E2,1.6824645E3,1.3600349E3,3.2047638E2,2.2177972E2,2.8758777E2,4.1015417E2,8.547345E2,1.8772845E2,3.2487737E3,1.2169941E3,2.2453763E2,8.3144653E2,1.3058379E3,2.432955E3,3.547759E2,3.3200665E1,2.8033794E3,6.950055E1],"tree_param":{"num_deleted":"0","num_feature":"100","num_nodes":"113","size_leaf_vector":"0"}},{"base_weights":[1.8888435E-10,-6.0381794E-1,5.0247915E-2,-6.2402093E-1,2.1424276E-1,1.8256496E-1,-1.4295148E-2,-4.551172E-1,-6.7606145E-1,-5.2519804E-1,3.3846208E-1,1.4741947E-1,2.7936748E-1,7.268082E-2,-8.659716E-2,-3.6242488E-1,-6.4202666E-1,-5.8834344E-1,-7.001748E-1,4.263303E-3,-6.348986E-1,9.55139E-2,4.6454436E-1,2.3159689E-1,1.17041126E-1,3.5547438E-1,2.381303E-1,2.1632874E-1,4.0745486E-2,-3.8035434E-2,-2.1266055E-1,3.398859E-1,-3.7992707E-1,-7.248928E-1,-5.499833E-1,-4.9076876E-1,-7.007115E-1,-3.973745E-2,-7.017574E-1,-2.172101E-1,2.4799596E-1,-3.4041095E-1,5.123338E-1,3.2455873E-1,1.911906E-1,2.2931103E-1,8.977237E-2,4.4922155E-1,3.131312E-1,3.5945383E-1,2.0981975E-1,1.438981E-1,2.7391055E-1,1.7796531E-1,2.2373201E-2,4.9005322E-2,-6.9561295E-2,-5.68844E-1,-1.9862406E-1,6.051736E-1,-5.391942E-2,-5.909143E-1,-3.30689E-1,-7.3383623E-1,-9.779926E-2,-4.4529974E-1,-6.555825E-1,-6.151708E-1,-3.9006728E-1,-1.2048811E-1,-7.0445824E-1,-2.3476727E-1,2.0003623E-1,-7.116293E-1,-6.095873E-1,-5.676822E-1,7.9716936E-2,5.5767673E-1,1.2309211E-1,5.479644E-1,-1.065055E-1,3.3293507E-1,-2.552268E-1,3.6761427E-1,1.66878E-1,2.4661781E-1,4.100216E-2,1.4004725E-1,4.792489E-2,2.4621461E-1,4.9554452E-1,4.696514E-1,2.7901492E-1,-1.154627E-1,3.7402102E-1,2.3626596E-1,6.3685626E-2,6.657722E-2,2.3386663E-1,3.4551367E-1,2.2355627E-1,2.8181836E-1,1.2261947E-1,9.584549E-2,-9.74905E-3,2.2372685E-2,1.8765779E-1,-5.850962E-2,-2.2070849E-1,-4.425673E-1,-7.047295E-1,-2.1132271E-1,-2.0393038E-3],"categories":[],"categories_nodes":[],"categories_segments":[],"categories_sizes":[],"default_left":[1,1,1,1,1,1,1,1,1,1,1,1,1,1,1,1,1,1,1,0,0,1,1,1,1,1,1,1,1,1,1,1,1,1,1,1,1,1,1,1,1,0,1,1,1,1,1,1,1,1,1,1,1,1,1,1,1,1,1,0,0,0,0,0,0,0,0,0,0,0,0,0,0,0,0,0,0,0,0,0,0,0,0,0,0,0,0,0,0,0,0,0,0,0,0,0,0,0,0,0,0,0,0,0,0,0,0,0,0,0,0,0,0],"id":6,"left_children":[1,3,5,7,9,11,13,15,17,19,21,23,25,27,29,31,33,35,37,-1,-1,39,41,43,45,47,49,51,53,55,57,59,61,63,65,67,69,71,73,75,77,-1,79,81,83,85,87,89,91,93,95,97,99,101,103,105,107,109,111,-1,-1,-1,-1,-1,-1,-1,-1,-1,-1,-1,-1,-1,-1,-1,-1,-1,-1,-1,-1,-1,-1,-1,-1,-1,-1,-1,-1,-1,-1,-1,-1,-1,-1,-1,-1,-1,-1,-1,-1,-1,-1,-1,-1,-1,-1,-1,-1,-1,-1,-1,-1,-1,-1],"loss_changes":[7.284268E2,3.0616821E1,1.8928566E2,1.551593E1,4.3292017E0,2.4681686E1,9.3693695E1,7.166458E0,2.494629E0,4.030372E-1,1.1595736E0,1.3611145E1,5.986511E0,3.1017628E1,4.9798E1,3.6666412E0,6.713295E-1,2.9734192E0,1.0931396E0,0E0,0E0,7.542337E-1,1.1598392E0,5.24662E0,1.1983532E1,2.5498123E0,4.244362E0,5.0900803E0,1.394858E1,1.6123268E1,1.1197403E1,8.1882316E-1,2.7265434E0,3.2462692E-1,4.8859787E-1,1.8305283E0,2.1573639E-1,2.164343E-1,5.397949E-1,6.0171133E-1,3.3131623E-1,0E0,6.00348E-1,2.1574783E0,4.174549E0,2.4850235E0,6.634033E0,1.8394814E0,2.379753E0,1.6796703E0,3.9351616E0,3.7883549E0,2.389206E0,3.7208595E0,1.1523111E1,5.765871E0,7.1915493E0,1.1506767E0,5.4367447E0,0E0,0E0,0E0,0E0,0E0,0E0,0E0,0E0,0E0,0E0,0E0,0E0,0E0,0E0,0E0,0E0,0E0,0E0,0E0,0E0,0E0,0E0,0E0,0E0,0E0,0E0,0E0,0E0,0E0,0E0,0E0,0E0,0E0,0E0,0E0,0E0,0E0,0E0,0E0,0E0,0E0,0E0,0E0,0E0,0E0,0E0,0E0,0E0,0E0,0E0,0E0,0E0,0E0,0E0],"parents":[2147483647,0,0,1,1,2,2,3,3,4,4,5,5,6,6,7,7,8,8,9,9,10,10,11,11,12,12,13,13,14,14,15,15,16,16,17,17,18,18,21,21,22,22,23,23,24,24,25,25,26,26,27,27,28,28,29,29,30,30,31,31,32,32,33,33,34,34,35,35,36,36,37,37,38,38,39,39,40,40,42,42,43,43,44,44,45,45,46,46,47,47,48,48,49,49,50,50,51,51,52,52,53,53,54,54,55,55,56,56,57,57,58,58],"right_children":[2,4,6,8,10,12,14,16,18,20,22,24,26,28,30,32,34,36,38,-1,-1,40,42,44,46,48,50,52,54,56,58,60,62,64,66,68,70,72,74,76,78,-1,80,82,84,86,88,90,92,94,96,98,100,102,104,106,108,110,112,-1,-1,-1,-1,-1,-1,-1,-1,-1,-1,-1,-1,-1,-1,-1,-1,-1,-1,-1,-1,-1,-1,-1,-1,-1,-1,-1,-1,-1,-1,-1,-1,-1,-1,-1,-1,-1,-1,-1,-1,-1,-1,-1,-1,-1,-1,-1,-1,-1,-1,-1,-1,-1,-1],"split_conditions":[-1.3471508E-1,2.1254186E-1,-2.2956783E-1,1.9066009E-1,-1.0138026E-1,1.255928E-1,-1.9332235E-1,1.9339567E-1,2.5426048E-1,-2.4074328E-1,-2.535885E-2,-3.2239807E-1,-7.977553E-2,-3.337197E-1,-1.3218275E-1,-2.0885673E-1,-3.1943446E-1,2.1916106E-1,-7.640096E-1,4.2633028E-4,-6.348986E-2,-1.4235452E-1,-2.8033113E-1,-3.3858575E-2,-1.8072617E-1,-8.23222E-2,-3.9758536E-1,-7.537734E-2,-1.20363295E-1,-2.6396772E-1,-1.557284E-1,-4.813838E-2,-3.4858504E-1,1.8912794E-1,1.2079442E-1,-9.53016E-2,-2.9834893E-1,4.7301807E-2,-1.511155E-1,-7.040775E-2,-1.22608066E-1,-3.4041096E-2,1.5562207E-1,4.0245366E-1,1.4587958E-1,1.2192171E-1,-2.809588E-1,1.12763196E-1,-3.281834E-1,-1.898519E-1,3.1812045E-1,8.357578E-2,3.5259113E-2,2.3802519E-2,-1.3622886E-1,1.5550786E-1,6.494447E-2,1.5127549E-1,2.5180852E-1,6.051736E-2,-5.391942E-3,-5.909143E-2,-3.3068903E-2,-7.338362E-2,-9.779925E-3,-4.4529974E-2,-6.555825E-2,-6.151708E-2,-3.900673E-2,-1.2048811E-2,-7.044583E-2,-2.3476727E-2,2.0003622E-2,-7.116293E-2,-6.0958732E-2,-5.676822E-2,7.971694E-3,5.5767674E-2,1.2309211E-2,5.479644E-2,-1.065055E-2,3.3293508E-2,-2.552268E-2,3.676143E-2,1.6687801E-2,2.4661781E-2,4.100216E-3,1.4004725E-2,4.792489E-3,2.4621462E-2,4.9554452E-2,4.696514E-2,2.7901491E-2,-1.154627E-2,3.7402105E-2,2.3626596E-2,6.3685626E-3,6.657722E-3,2.3386663E-2,3.4551367E-2,2.2355627E-2,2.8181836E-2,1.2261948E-2,9.584549E-3,-9.7490504E-4,2.2372685E-3,1.876578E-2,-5.8509624E-3,-2.207085E-2,-4.425673E-2,-7.047295E-2,-2.1132272E-2,-2.0393038E-4],"split_indices":[60,87,78,37,94,14,55,19,37,78,92,5,38,55,5,32,60,19,16,0,0,80,49,38,81,40,5,45,93,5,96,86,67,37,9,79,43,6,95,40,86,0,32,90,60,29,78,95,29,79,74,14,38,38,28,88,3,5,20,0,0,0,0,0,0,0,0,0,0,0,0,0,0,0,0,0,0,0,0,0,0,0,0,0,0,0,0,0,0,0,0,0,0,0,0,0,0,0,0,0,0,0,0,0,0,0,0,0,0,0,0,0,0],"split_type":[0,0,0,0,0,0,0,0,0,0,0,0,0,0,0,0,0,0,0,0,0,0,0,0,0,0,0,0,0,0,0,0,0,0,0,0,0,0,0,0,0,0,0,0,0,0,0,0,0,0,0,0,0,0,0,0,0,0,0,0,0,0,0,0,0,0,0,0,0,0,0,0,0,0,0,0,0,0,0,0,0,0,0,0,0,0,0,0,0,0,0,0,0,0,0,0,0,0,0,0,0,0,0,0,0,0,0,0,0,0,0,0,0],"sum_hessian":[2.4006324E4,1.843414E3,2.216291E4,1.7992173E3,4.4196663E1,7.2657896E3,1.4897121E4,4.260771E2,1.3731403E3,5.8924813E0,3.8304184E1,5.332335E3,1.9334545E3,6.762337E3,8.1347837E3,2.8679065E2,1.3928644E2,3.015564E2,1.0715839E3,1.1762995E0,4.716182E0,1.3687418E1,2.4616764E1,1.4122932E3,3.920042E3,6.7677875E2,1.2566757E3,1.2288937E3,5.5334434E3,5.8735107E3,2.261273E3,6.5254116E0,2.8026523E2,6.9679146E1,6.960729E1,1.6427553E2,1.3728088E2,2.6240678E0,1.0689597E3,4.3472295E0,9.340189E0,1.0364178E0,2.3580347E1,4.257491E2,9.8654407E2,7.646097E2,3.1554321E3,2.0758328E2,4.6919543E2,2.3554814E2,1.02112756E3,5.458201E2,6.830736E2,6.523621E2,4.8810815E3,1.5615693E3,4.3119414E3,8.423518E1,2.1770378E3,3.5782106E0,2.947201E0,5.0948307E1,2.2931693E2,6.853155E1,1.1475959E0,3.757499E1,3.20323E1,7.120422E1,9.30713E1,1.0935287E0,1.3618736E2,1.458564E0,1.1655036E0,9.5947424E2,1.0948552E2,1.5756197E0,2.7716098E0,1.6886299E0,7.651559E0,2.2404882E1,1.1754652E0,4.2010547E2,5.6436315E0,1.1777722E2,8.6876685E2,6.999685E2,6.464119E1,1.4323197E3,1.7231124E3,3.9740158E1,1.6784312E2,8.168261E1,3.8751285E2,6.803855E0,2.287443E2,8.641277E2,1.5699986E2,2.9447876E2,2.5134135E2,2.7961005E2,4.0346353E2,2.2537257E2,4.2698956E2,1.4842396E3,3.3968418E3,1.3109255E3,2.506438E2,4.019433E3,2.925082E2,4.5867752E1,3.8367428E1,2.0448716E3,1.321662E2],"tree_param":{"num_deleted":"0","num_feature":"100","num_nodes":"113","size_leaf_vector":"0"}},{"base_weights":[4.3362803E-11,-5.627401E-1,4.9294766E-2,-5.950547E-1,1.4970906E-1,1.7534569E-1,-1.27341645E-2,-4.7158608E-1,-6.672151E-1,2.7911532E-1,-2.9139784E-1,1.4169969E-1,2.6756778E-1,6.377863E-2,-8.5873134E-2,-3.8823017E-1,-6.428498E-1,-6.213651E-1,-7.042877E-1,2.3102075E-2,4.1258663E-1,1.11075275E-1,-5.613768E-1,2.5819254E-1,1.211302E-1,3.5485348E-1,2.3120847E-1,2.0378011E-1,3.5358798E-2,-2.3310903E-2,-1.7269443E-1,-3.511008E-1,-6.480829E-1,-6.944809E-1,-5.312902E-1,-7.305932E-1,-5.8766437E-1,-7.0496976E-1,-2.0156644E-1,-2.2418907E-1,2.823908E-1,2.0119472E-1,5.357481E-1,3.536728E-1,-3.0043167E-1,-6.262875E-1,3.238446E-2,2.2655341E-1,3.9304844E-1,1.6951731E-1,7.238077E-2,3.9611468E-1,2.4043362E-1,3.4965673E-1,1.9778658E-1,2.8854176E-1,1.5170702E-1,1.397175E-1,1.4291089E-2,5.6181088E-2,-5.385065E-2,-2.8969583E-1,-1.444722E-1,-3.3218247E-1,-5.970974E-1,-6.9203126E-1,-4.0440008E-1,-6.9847506E-1,-1.2848797E-1,-6.9537485E-1,-4.369518E-1,-7.34838E-1,-1.7179E-1,-6.4635354E-1,-4.87609E-1,2.0526674E-1,-4.4808483E-1,1.6450804E-2,4.1253436E-1,-3.660432E-1,2.9145786E-1,5.664411E-1,-9.0053275E-2,-1.6380712E-1,5.5340487E-1,-6.8084425E-1,-1.7363088E-1,1.9489847E-1,3.364926E-1,4.6981394E-1,2.736143E-1,2.3067634E-1,1.2548155E-1,1.44655565E-2,1.1306424E-1,3.4564814E-1,4.825312E-1,1.2754928E-1,3.7283456E-1,-5.4741044E-2,3.6887696E-1,2.5127652E-1,1.441849E-1,3.7705842E-1,2.3219521E-1,2.7800294E-2,1.9755673E-1,1.1466556E-1,2.975381E-1,7.914229E-2,-1.918172E-2,2.447392E-2,1.7831238E-1,3.6028286E-3,-8.493423E-2,-2.6932153E-1,-6.6722775E-1,-1.5328987E-1,9.954331E-2],"categories":[],"categories_nodes":[],"categories_segments":[],"categories_sizes":[],"default_left":[1,1,1,1,1,1,1,1,1,1,1,1,1,1,1,1,1,1,1,1,1,1,1,1,1,1,1,1,1,1,1,1,1,1,1,1,1,0,0,1,1,1,1,1,0,1,0,1,1,1,1,1,1,1,1,1,1,1,1,1,1,1,1,0,0,0,0,0,0,0,0,0,0,0,0,0,0,0,0,0,0,0,0,0,0,0,0,0,0,0,0,0,0,0,0,0,0,0,0,0,0,0,0,0,0,0,0,0,0,0,0,0,0,0,0,0,0,0,0],"id":7,"left_children":[1,3,5,7,9,11,13,15,17,19,21,23,25,27,29,31,33,35,37,39,41,43,45,47,49,51,53,55,57,59,61,63,65,67,69,71,73,-1,-1,75,77,79,81,83,-1,85,-1,87,89,91,93,95,97,99,101,103,105,107,109,111,113,115,117,-1,-1,-1,-1,-1,-1,-1,-1,-1,-1,-1,-1,-1,-1,-1,-1,-1,-1,-1,-1,-1,-1,-1,-1,-1,-1,-1,-1,-1,-1,-1,-1,-1,-1,-1,-1,-1,-1,-1,-1,-1,-1,-1,-1,-1,-1,-1,-1,-1,-1,-1,-1,-1,-1,-1,-1],"loss_changes":[6.6315454E2,4.4417664E1,1.7186356E2,1.6097595E1,4.8957586E0,2.2455856E1,8.244813E1,9.499298E0,1.5344849E0,2.2362218E0,2.194262E0,1.2701096E1,6.064316E0,2.864281E1,4.091115E1,4.2285385E0,9.0995026E-1,1.5113068E0,7.531738E-2,1.5753466E0,1.0153933E0,9.759772E-1,4.7923803E-1,3.3095894E0,1.0645065E1,2.5846329E0,5.354561E0,5.3182983E0,1.3160551E1,1.0633996E1,1.0374504E1,1.6924973E0,3.258705E-1,2.4603271E-1,8.49453E-1,1.5885925E-1,2.080658E0,0E0,0E0,1.3061447E0,4.0694696E-1,1.0018315E0,5.630417E-1,7.046092E-1,0E0,1.4809513E-1,0E0,2.187931E0,1.2467842E0,6.0756836E0,5.305295E0,1.6459122E0,2.2390137E0,2.3535576E0,3.0340462E0,2.212757E0,4.2816696E0,3.9412594E0,1.0816879E1,4.7042255E0,5.651066E0,4.5281143E0,5.4879417E0,0E0,0E0,0E0,0E0,0E0,0E0,0E0,0E0,0E0,0E0,0E0,0E0,0E0,0E0,0E0,0E0,0E0,0E0,0E0,0E0,0E0,0E0,0E0,0E0,0E0,0E0,0E0,0E0,0E0,0E0,0E0,0E0,0E0,0E0,0E0,0E0,0E0,0E0,0E0,0E0,0E0,0E0,0E0,0E0,0E0,0E0,0E0,0E0,0E0,0E0,0E0,0E0,0E0,0E0,0E0,0E0],"parents":[2147483647,0,0,1,1,2,2,3,3,4,4,5,5,6,6,7,7,8,8,9,9,10,10,11,11,12,12,13,13,14,14,15,15,16,16,17,17,18,18,19,19,20,20,21,21,22,22,23,23,24,24,25,25,26,26,27,27,28,28,29,29,30,30,31,31,32,32,33,33,34,34,35,35,36,36,39,39,40,40,41,41,42,42,43,43,45,45,47,47,48,48,49,49,50,50,51,51,52,52,53,53,54,54,55,55,56,56,57,57,58,58,59,59,60,60,61,61,62,62],"right_children":[2,4,6,8,10,12,14,16,18,20,22,24,26,28,30,32,34,36,38,40,42,44,46,48,50,52,54,56,58,60,62,64,66,68,70,72,74,-1,-1,76,78,80,82,84,-1,86,-1,88,90,92,94,96,98,100,102,104,106,108,110,112,114,116,118,-1,-1,-1,-1,-1,-1,-1,-1,-1,-1,-1,-1,-1,-1,-1,-1,-1,-1,-1,-1,-1,-1,-1,-1,-1,-1,-1,-1,-1,-1,-1,-1,-1,-1,-1,-1,-1,-1,-1,-1,-1,-1,-1,-1,-1,-1,-1,-1,-1,-1,-1,-1,-1,-1,-1,-1],"split_conditions":[-1.3128746E-1,1.0570289E-1,-2.2956783E-1,2.304245E-1,-1.10136874E-1,1.255928E-1,-1.856905E-1,2.0355144E-1,3.334357E-1,-4.520573E-1,-1.8506642E-1,-3.2279456E-1,-3.4669223E-1,-3.3326966E-1,-1.7333923E-1,2.6391095E-1,-2.2493023E-1,-3.318283E-1,5.772127E-1,-4.2953165E-3,2.7383264E-2,1.3301395E-1,1.3017201E-1,-8.6473405E-2,-2.8082794E-1,-1.5448827E-1,-3.7092927E-1,1.8153809E-1,-3.109312E-1,-2.7195135E-1,2.5115296E-2,1.626955E-1,-2.7918544E-2,3.4409624E-1,-1.4634043E-1,2.4772853E-1,-2.6590872E-1,-7.049698E-2,-2.0156644E-2,-3.9141916E-2,2.1053188E-1,-3.7718785E-1,2.5159755E-1,7.916525E-3,-3.0043168E-2,-1.871014E-2,3.2384458E-3,-4.493451E-2,-1.8063581E-1,-3.115268E-1,-5.8170825E-2,1.4807422E-1,2.7541827E-2,-1.1497338E-1,-3.2148737E-1,3.7232194E-2,-1.4042345E-1,1.0282764E-1,-1.0305941E-1,1.429446E-1,-1.1364124E-1,2.473584E-1,1.7206535E-1,-3.3218246E-2,-5.970974E-2,-6.920313E-2,-4.0440008E-2,-6.984751E-2,-1.2848797E-2,-6.953748E-2,-4.3695178E-2,-7.34838E-2,-1.7179001E-2,-6.463536E-2,-4.8760902E-2,2.0526676E-2,-4.4808485E-2,1.6450804E-3,4.1253436E-2,-3.6604322E-2,2.9145787E-2,5.6644112E-2,-9.005328E-3,-1.6380712E-2,5.5340488E-2,-6.8084426E-2,-1.7363088E-2,1.9489847E-2,3.3649262E-2,4.6981394E-2,2.7361428E-2,2.3067635E-2,1.2548155E-2,1.4465557E-3,1.1306424E-2,3.4564815E-2,4.825312E-2,1.2754927E-2,3.7283458E-2,-5.4741045E-3,3.6887698E-2,2.5127653E-2,1.441849E-2,3.7705842E-2,2.3219522E-2,2.7800293E-3,1.9755675E-2,1.1466556E-2,2.975381E-2,7.914229E-3,-1.9181721E-3,2.447392E-3,1.7831238E-2,3.6028287E-4,-8.4934225E-3,-2.6932154E-2,-6.672277E-2,-1.53289875E-2,9.954331E-3],"split_indices":[67,94,78,37,37,14,55,19,37,89,5,55,19,55,5,89,2,95,44,0,4,23,48,66,78,32,5,2,5,5,95,25,22,14,34,0,96,0,0,53,27,3,28,36,0,2,0,12,35,19,45,21,88,79,56,38,45,44,40,88,28,35,33,0,0,0,0,0,0,0,0,0,0,0,0,0,0,0,0,0,0,0,0,0,0,0,0,0,0,0,0,0,0,0,0,0,0,0,0,0,0,0,0,0,0,0,0,0,0,0,0,0,0,0,0,0,0,0,0],"split_type":[0,0,0,0,0,0,0,0,0,0,0,0,0,0,0,0,0,0,0,0,0,0,0,0,0,0,0,0,0,0,0,0,0,0,0,0,0,0,0,0,0,0,0,0,0,0,0,0,0,0,0,0,0,0,0,0,0,0,0,0,0,0,0,0,0,0,0,0,0,0,0,0,0,0,0,0,0,0,0,0,0,0,0,0,0,0,0,0,0,0,0,0,0,0,0,0,0,0,0,0,0,0,0,0,0,0,0,0,0,0,0,0,0,0,0,0,0,0,0],"sum_hessian":[2.3903957E4,1.9244436E3,2.1979514E4,1.8411013E3,8.3342255E1,7.248263E3,1.473125E4,6.8189435E2,1.1592069E3,6.4722145E1,1.862011E1,5.3125767E3,1.9356868E3,7.199633E3,7.5316167E3,4.6085715E2,2.2103722E2,5.261925E2,6.3301447E2,2.2581442E1,4.2140705E1,7.711987E0,1.0908123E1,7.955459E2,4.517031E3,5.66636E2,1.3690508E3,1.2138429E3,5.98579E3,4.3780923E3,3.1535244E3,4.0529694E2,5.5560207E1,1.4753232E2,7.3504906E1,1.1919323E2,4.0699924E2,6.31755E2,1.2594314E0,1.1627412E1,1.095403E1,1.6483076E1,2.5657629E1,4.940144E0,2.7718432E0,9.78377E0,1.1243536E0,6.465387E2,1.4900723E2,2.2656965E3,2.2513342E3,4.146472E2,1.5198878E2,2.992032E2,1.0698475E3,4.602053E2,7.5363763E2,1.00447925E3,4.9813105E3,1.214924E3,3.1631682E3,6.110441E2,2.5424805E3,3.7853604E2,2.6760918E1,4.551217E1,1.0048039E1,1.4626607E2,1.2662501E0,2.4507484E1,4.899742E1,1.1798199E2,1.2112362E0,2.5308693E2,1.5391232E2,4.013088E0,7.614324E0,3.9693408E0,6.9846888E0,1.8433948E0,1.4639681E1,2.4548485E1,1.1091456E0,1.4258406E0,3.5143034E0,8.281527E0,1.5022433E0,5.0415073E2,1.4238797E2,8.8920494E1,6.0086735E1,9.466724E2,1.3190242E3,9.294975E2,1.3218367E3,2.6493002E2,1.4971718E2,8.310082E1,6.888797E1,1.3491487E1,2.857117E2,5.336361E2,5.362115E2,1.7678938E2,2.834159E2,2.039847E2,5.4965295E2,8.6836444E2,1.3611485E2,1.6953417E3,3.285969E3,9.654727E2,2.4945122E2,1.1108351E3,2.0523333E3,5.81382E2,2.9662106E1,2.454169E3,8.8311325E1],"tree_param":{"num_deleted":"0","num_feature":"100","num_nodes":"119","size_leaf_vector":"0"}},{"base_weights":[1.6388642E-10,-5.5209434E-1,4.6682954E-2,-5.7379854E-1,2.098216E-1,1.6944753E-1,-1.350292E-2,-6.2281173E-1,-3.7979317E-1,-4.6539307E-1,3.148491E-1,1.4310941E-1,2.7745953E-1,6.75732E-2,-8.135249E-2,-6.6199106E-1,-5.463059E-1,-6.0677975E-1,-3.1114087E-1,-6.214253E-1,5.8883656E-2,4.479379E-1,5.6563277E-2,1.83859E-1,8.436064E-2,3.7529162E-1,2.4917473E-1,1.9243972E-1,3.960774E-2,-1.7837033E-2,-1.6599697E-1,-6.6338605E-1,2.0448412E-1,-6.428968E-1,-4.7591665E-1,-6.383444E-1,-2.6405743E-1,1.502322E-1,-3.254508E-1,6.930212E-2,5.236723E-1,1.8042631E-1,-5.357584E-1,2.704224E-1,1.4723444E-1,1.6776489E-1,4.165249E-2,3.8129377E-1,-4.5207953E-1,3.042443E-1,1.8832168E-1,1.3610171E-1,2.589964E-1,1.00153215E-1,3.0492188E-3,6.566441E-2,-4.2472895E-2,-2.9749182E-1,-1.3692601E-1,-6.6844016E-1,-4.6224484E-1,2.729628E-1,-6.4892435E-1,-5.414008E-1,-3.644979E-1,-6.763775E-1,-4.2097864E-1,-3.4649E-1,1.4350896E-1,4.7503075E-1,-7.251849E-2,-4.8920968E-1,-2.865278E-1,3.5125527E-1,-2.9704446E-1,8.641949E-2,5.897352E-1,-8.905138E-3,4.9305695E-1,3.4249234E-1,2.3913373E-1,2.585096E-1,1.2217596E-1,3.9961526E-1,1.5173937E-1,1.7694898E-2,1.687577E-1,3.924516E-1,-4.521343E-2,3.618856E-1,2.359925E-1,2.1972884E-1,1.5608494E-3,3.1522763E-1,1.01694E-1,3.4011057E-1,2.1451312E-1,2.3969488E-1,8.086158E-2,7.4220516E-2,-3.7528582E-2,1.8915518E-1,3.2621674E-2,1.214234E-2,-7.2453655E-2,-2.6391378E-1,-5.813904E-1,-1.9126898E-1,-9.5003635E-2],"categories":[],"categories_nodes":[],"categories_segments":[],"categories_sizes":[],"default_left":[1,1,1,1,1,1,1,1,1,1,1,1,1,1,1,1,1,1,1,0,0,1,1,1,1,1,1,1,1,1,1,1,0,1,1,1,1,1,1,1,1,1,0,1,1,1,1,1,0,1,1,1,1,1,1,1,1,1,1,0,0,0,0,0,0,0,0,0,0,0,0,0,0,0,0,0,0,0,0,0,0,0,0,0,0,0,0,0,0,0,0,0,0,0,0,0,0,0,0,0,0,0,0,0,0,0,0,0,0],"id":8,"left_children":[1,3,5,7,9,11,13,15,17,19,21,23,25,27,29,31,33,35,37,-1,-1,39,41,43,45,47,49,51,53,55,57,59,-1,61,63,65,67,69,71,73,75,77,-1,79,81,83,85,87,-1,89,91,93,95,97,99,101,103,105,107,-1,-1,-1,-1,-1,-1,-1,-1,-1,-1,-1,-1,-1,-1,-1,-1,-1,-1,-1,-1,-1,-1,-1,-1,-1,-1,-1,-1,-1,-1,-1,-1,-1,-1,-1,-1,-1,-1,-1,-1,-1,-1,-1,-1,-1,-1,-1,-1,-1,-1],"loss_changes":[6.131525E2,3.0792236E1,1.6207594E2,1.6914246E1,3.84157E0,2.0489258E1,8.098065E1,3.949646E0,5.519863E0,6.4335227E-1,1.545157E0,1.3878296E1,3.8181763E0,2.3412687E1,4.3083195E1,1.2797241E0,3.0448608E0,7.40324E-1,1.919426E0,0E0,0E0,8.241663E-1,1.3204708E0,1.0821465E1,8.46612E0,1.7369728E0,3.6274643E0,4.5655518E0,1.2131529E1,9.423758E0,1.3092186E1,6.51886E-1,0E0,1.3082886E0,1.9108124E0,3.4542465E-1,3.4506822E-1,7.0058405E-1,1.6133862E0,7.400012E-1,6.669302E-1,8.652524E-1,0E0,2.2121887E0,6.6871758E0,2.931202E0,4.791562E0,1.5088654E0,0E0,2.178997E0,3.0789413E0,4.0764933E0,1.95261E0,5.535486E0,9.87524E0,4.2527537E0,5.792276E0,5.767929E0,6.395756E0,0E0,0E0,0E0,0E0,0E0,0E0,0E0,0E0,0E0,0E0,0E0,0E0,0E0,0E0,0E0,0E0,0E0,0E0,0E0,0E0,0E0,0E0,0E0,0E0,0E0,0E0,0E0,0E0,0E0,0E0,0E0,0E0,0E0,0E0,0E0,0E0,0E0,0E0,0E0,0E0,0E0,0E0,0E0,0E0,0E0,0E0,0E0,0E0,0E0,0E0],"parents":[2147483647,0,0,1,1,2,2,3,3,4,4,5,5,6,6,7,7,8,8,9,9,10,10,11,11,12,12,13,13,14,14,15,15,16,16,17,17,18,18,21,21,22,22,23,23,24,24,25,25,26,26,27,27,28,28,29,29,30,30,31,31,33,33,34,34,35,35,36,36,37,37,38,38,39,39,40,40,41,41,43,43,44,44,45,45,46,46,47,47,49,49,50,50,51,51,52,52,53,53,54,54,55,55,56,56,57,57,58,58],"right_children":[2,4,6,8,10,12,14,16,18,20,22,24,26,28,30,32,34,36,38,-1,-1,40,42,44,46,48,50,52,54,56,58,60,-1,62,64,66,68,70,72,74,76,78,-1,80,82,84,86,88,-1,90,92,94,96,98,100,102,104,106,108,-1,-1,-1,-1,-1,-1,-1,-1,-1,-1,-1,-1,-1,-1,-1,-1,-1,-1,-1,-1,-1,-1,-1,-1,-1,-1,-1,-1,-1,-1,-1,-1,-1,-1,-1,-1,-1,-1,-1,-1,-1,-1,-1,-1,-1,-1,-1,-1,-1,-1],"split_conditions":[-1.1531554E-1,2.1914637E-1,-2.2956783E-1,-2.1054117E-1,-1.0138026E-1,1.533292E-1,-1.9334877E-1,-3.1817758E-1,-2.1087092E-1,1.2595746E-1,8.790602E-2,-2.4757974E-1,-1.4884324E-1,-3.337197E-1,-1.798E-1,2.867846E-1,-2.9545498E-1,-4.0930316E-2,-1.7940004E-1,-6.214253E-2,5.8883657E-3,-3.8673475E-2,5.1073574E-2,-3.272917E-2,-1.4507085E-1,4.0949553E-1,-2.903098E-1,-4.3992713E-2,-2.6866752E-1,-2.8499085E-1,2.5115296E-2,4.0875003E-2,2.0448413E-2,-8.332567E-2,-1.1332397E-1,-3.4860343E-2,2.5798738E-1,1.8486721E-2,-4.512359E-2,-3.693974E-1,1.5292525E-1,5.5750366E-2,-5.357584E-2,-1.4784211E-1,-3.1683952E-1,-2.0924751E-1,1.6132727E-1,3.6125684E-1,-4.5207955E-2,-1.390402E-1,3.1839088E-1,-3.421113E-1,1.2343781E-2,-2.1038264E-1,-1.03059426E-1,-1.1963706E-1,-1.1388431E-1,1.2949064E-1,6.6073634E-2,-6.684402E-2,-4.6224486E-2,2.729628E-2,-6.489243E-2,-5.414008E-2,-3.644979E-2,-6.763775E-2,-4.2097863E-2,-3.4649E-2,1.4350896E-2,4.7503076E-2,-7.251849E-3,-4.892097E-2,-2.8652782E-2,3.5125528E-2,-2.9704446E-2,8.64195E-3,5.897352E-2,-8.905138E-4,4.9305696E-2,3.4249235E-2,2.3913374E-2,2.5850961E-2,1.2217596E-2,3.9961528E-2,1.5173937E-2,1.7694898E-3,1.6875772E-2,3.9245162E-2,-4.5213434E-3,3.618856E-2,2.359925E-2,2.1972885E-2,1.5608493E-4,3.1522762E-2,1.0169401E-2,3.401106E-2,2.1451313E-2,2.3969488E-2,8.086159E-3,7.422052E-3,-3.7528581E-3,1.8915517E-2,3.2621676E-3,1.214234E-3,-7.2453655E-3,-2.6391378E-2,-5.8139037E-2,-1.9126898E-2,-9.500364E-3],"split_indices":[60,96,78,60,94,14,55,60,87,90,12,5,38,55,5,67,96,2,56,0,0,92,86,38,81,8,5,45,5,5,95,96,0,37,36,92,84,46,14,19,87,20,0,93,55,38,42,31,0,28,74,83,65,83,40,93,28,19,49,0,0,0,0,0,0,0,0,0,0,0,0,0,0,0,0,0,0,0,0,0,0,0,0,0,0,0,0,0,0,0,0,0,0,0,0,0,0,0,0,0,0,0,0,0,0,0,0,0,0],"split_type":[0,0,0,0,0,0,0,0,0,0,0,0,0,0,0,0,0,0,0,0,0,0,0,0,0,0,0,0,0,0,0,0,0,0,0,0,0,0,0,0,0,0,0,0,0,0,0,0,0,0,0,0,0,0,0,0,0,0,0,0,0,0,0,0,0,0,0,0,0,0,0,0,0,0,0,0,0,0,0,0,0,0,0,0,0,0,0,0,0,0,0,0,0,0,0,0,0,0,0,0,0,0,0,0,0,0,0,0,0],"sum_hessian":[2.3788133E4,1.8537692E3,2.1934363E4,1.8026648E3,5.1104397E1,7.2152305E3,1.4719134E4,1.4373296E3,3.6533514E2,6.417241E0,4.4687157E1,5.8026196E3,1.4126106E3,6.705943E3,8.013191E3,9.454854E2,4.918442E2,8.3016716E1,2.8231845E2,4.802614E0,1.6146266E0,2.9006496E1,1.5680659E1,3.4248975E3,2.3777222E3,3.1406107E2,1.0985496E3,1.2259888E3,5.479954E3,4.5786655E3,3.434525E3,9.4419965E2,1.2857541E0,2.0390475E2,2.8793945E2,7.522587E1,7.7908473E0,8.207239E0,2.741112E2,5.154003E0,2.3852493E1,1.35438385E1,2.1368213E0,1.01634576E3,2.4085518E3,8.042275E2,1.5734946E3,3.1233438E2,1.726677E0,5.745789E2,5.2397064E2,6.6561383E2,5.60375E2,2.062484E3,3.4174702E3,1.0427332E3,3.5359326E3,6.201601E2,2.814365E3,9.1878986E2,2.5409817E1,1.0436376E0,2.0286111E2,1.789223E2,1.0901715E2,6.222627E1,1.2999598E1,6.6048384E0,1.186009E0,2.8780756E0,5.3291636E0,5.0418663E1,2.2369255E2,2.935745E0,2.2182581E0,3.433726E0,2.0418768E1,9.040413E0,4.5034256E0,3.0465686E2,7.116889E2,4.4098578E2,1.967566E3,5.0446903E1,7.537806E2,1.3249071E3,2.4858759E2,3.0444955E2,7.8848453E0,3.0917032E2,2.6540857E2,4.4838943E2,7.55812E1,1.0593845E2,5.5967535E2,1.9611618E2,3.6425885E2,2.4911824E2,1.8133657E3,1.2406345E3,2.1768357E3,2.1911374E2,8.236194E2,1.2533429E3,2.2825896E3,5.562941E2,6.386599E1,1.2240697E3,1.5902952E3],"tree_param":{"num_deleted":"0","num_feature":"100","num_nodes":"109","size_leaf_vector":"0"}},{"base_weights":[1.9028627E-10,4.5709312E-2,-5.205678E-1,1.637413E-1,-1.1920535E-2,1.4621782E-1,-5.4956406E-1,1.3082395E-1,2.52783E-1,5.6914244E-2,-8.245485E-2,1.94595E-1,-3.797265E-1,-3.833629E-1,-6.09795E-1,1.7420225E-1,8.338033E-2,3.244862E-1,2.1318899E-1,1.7189118E-1,2.9458899E-2,3.8269549E-3,-1.3315374E-1,5.388782E-1,1.318505E-1,-5.2945745E-1,2.7359495E-2,-3.2458773E-1,-5.8075106E-1,-5.631672E-1,-6.6175926E-1,2.2324806E-1,1.3368306E-1,1.5137896E-1,4.97536E-2,3.3110988E-1,-1.5237583E-1,1.9153178E-1,3.4025815E-1,1.3023268E-1,2.6134762E-1,1.4432026E-1,1.3621118E-2,-2.0757478E-2,1.6661118E-1,-2.1372922E-1,-9.210859E-2,-2.334269E-3,5.952917E-1,2.4395916E-1,-7.85698E-2,-5.840395E-1,-1.5894008E-1,-5.3631544E-1,-2.9296726E-1,-6.2465006E-1,-4.3771243E-1,-4.9167448E-1,-6.341254E-1,-3.341363E-2,-6.6442364E-1,7.091745E-2,2.4796242E-1,2.1040587E-1,9.849183E-2,1.0036395E-1,2.4152319E-1,7.850138E-2,-2.6369644E-2,3.778633E-1,2.4952564E-1,3.9696392E-1,-3.376155E-1,2.452875E-1,1.365219E-1,3.860114E-1,1.1521234E-1,1.1100057E-1,3.577121E-1,2.0139553E-1,3.2790592E-1,2.4633357E-1,8.9754485E-2,8.403353E-2,-8.837859E-3,7.7133566E-2,-5.9598625E-2,3.1223327E-1,1.250289E-1,-4.758329E-1,-1.9629624E-1,-7.690703E-2,-2.5797418E-1,4.0664387E-1,1.2992075E-1,5.7561256E-2,-4.5218742E-1,-5.7857776E-1,-6.0804956E-2,-2.9910418E-1,3.4486598E-1,-2.3318373E-1,-6.421173E-1,-2.1721333E-1,-5.092852E-1,-6.392729E-1,-4.2834482E-1,-6.3713175E-1,9.504697E-2,-2.7328673E-1,2.9598436E-1,-6.654796E-1,-8.786875E-3],"categories":[],"categories_nodes":[],"categories_segments":[],"categories_sizes":[],"default_left":[1,1,1,1,1,1,1,1,1,1,1,1,1,1,1,1,1,1,1,1,1,1,1,1,1,1,0,1,1,1,1,1,1,1,1,1,1,1,1,1,1,1,1,1,1,1,1,0,0,1,1,0,0,1,1,1,1,1,1,1,1,0,0,0,0,0,0,0,0,0,0,0,0,0,0,0,0,0,0,0,0,0,0,0,0,0,0,0,0,0,0,0,0,0,0,0,0,0,0,0,0,0,0,0,0,0,0,0,0,0,0,0,0],"id":9,"left_children":[1,3,5,7,9,11,13,15,17,19,21,23,25,27,29,31,33,35,37,39,41,43,45,47,49,51,-1,53,55,57,59,61,63,65,67,69,71,73,75,77,79,81,83,85,87,89,91,-1,-1,93,95,-1,-1,97,99,101,103,105,107,109,111,-1,-1,-1,-1,-1,-1,-1,-1,-1,-1,-1,-1,-1,-1,-1,-1,-1,-1,-1,-1,-1,-1,-1,-1,-1,-1,-1,-1,-1,-1,-1,-1,-1,-1,-1,-1,-1,-1,-1,-1,-1,-1,-1,-1,-1,-1,-1,-1,-1,-1,-1,-1],"loss_changes":[5.6349554E2,1.4808455E2,3.7038696E1,2.0900787E1,7.103033E1,2.1208942E0,1.8106201E1,1.0721252E1,5.4005737E0,2.3367859E1,3.1608028E1,1.5347588E0,4.4820583E-1,5.496582E0,2.8815613E0,5.3837585E0,5.6938972E0,2.2093048E0,3.3586884E0,5.283943E0,1.0873148E1,1.07098255E1,1.50325165E1,3.4136796E-1,1.5336733E0,1.3373256E-2,0E0,2.3860207E0,4.2463303E-1,3.313324E0,1.0316467E0,4.616417E0,4.013605E0,3.767683E0,3.6563869E0,2.4782486E0,1.15655E0,3.1166153E0,1.807703E0,4.2285213E0,1.7392063E0,4.009716E0,8.310668E0,8.845285E0,2.0871687E0,6.9214783E0,7.5874214E0,0E0,0E0,7.2875905E-1,1.1995076E0,0E0,0E0,9.3255234E-1,1.4054775E0,4.1589737E-1,3.5410357E-1,3.095024E0,8.391876E-1,3.7409616E-1,4.2807007E-1,0E0,0E0,0E0,0E0,0E0,0E0,0E0,0E0,0E0,0E0,0E0,0E0,0E0,0E0,0E0,0E0,0E0,0E0,0E0,0E0,0E0,0E0,0E0,0E0,0E0,0E0,0E0,0E0,0E0,0E0,0E0,0E0,0E0,0E0,0E0,0E0,0E0,0E0,0E0,0E0,0E0,0E0,0E0,0E0,0E0,0E0,0E0,0E0,0E0,0E0,0E0,0E0],"parents":[2147483647,0,0,1,1,2,2,3,3,4,4,5,5,6,6,7,7,8,8,9,9,10,10,11,11,12,12,13,13,14,14,15,15,16,16,17,17,18,18,19,19,20,20,21,21,22,22,23,23,24,24,25,25,27,27,28,28,29,29,30,30,31,31,32,32,33,33,34,34,35,35,36,36,37,37,38,38,39,39,40,40,41,41,42,42,43,43,44,44,45,45,46,46,49,49,50,50,53,53,54,54,55,55,56,56,57,57,58,58,59,59,60,60],"right_children":[2,4,6,8,10,12,14,16,18,20,22,24,26,28,30,32,34,36,38,40,42,44,46,48,50,52,-1,54,56,58,60,62,64,66,68,70,72,74,76,78,80,82,84,86,88,90,92,-1,-1,94,96,-1,-1,98,100,102,104,106,108,110,112,-1,-1,-1,-1,-1,-1,-1,-1,-1,-1,-1,-1,-1,-1,-1,-1,-1,-1,-1,-1,-1,-1,-1,-1,-1,-1,-1,-1,-1,-1,-1,-1,-1,-1,-1,-1,-1,-1,-1,-1,-1,-1,-1,-1,-1,-1,-1,-1,-1,-1,-1,-1],"split_conditions":[7.437702E-2,-2.2988513E-1,-2.1486957E-1,1.2561172E-1,-2.212398E-1,1.2069386E-1,1.9066009E-1,-2.809588E-1,-7.658574E-2,-2.833094E-1,-1.7985946E-1,-4.4691437E-1,2.8520513E-1,2.213754E-1,3.3186454E-1,-3.065973E-1,-2.4754469E-1,3.0017292E-1,1.22426655E-2,2.6023757E-1,-1.1982562E-1,3.5270494E-1,1.3502535E-1,3.5977952E-2,-1.2413822E-1,2.038723E-1,2.7359496E-3,-3.407615E-1,-1.05547816E-1,2.1433932E-1,-7.640096E-1,-1.4250413E-1,-2.6528975E-1,3.8368E-2,-2.110052E-1,-2.4289799E-1,2.0607788E-2,-2.9153588E-1,-1.3564703E-1,1.7546868E-1,-1.4891396E-1,-3.080979E-1,-1.4305255E-1,-1.5969245E-1,-1.8506189E-1,-1.03223786E-1,6.097556E-2,-2.3342691E-4,5.9529167E-2,-6.65458E-2,-1.8923884E-3,-5.840395E-2,-1.5894009E-2,6.9543034E-2,2.6220137E-1,-1.7899723E-1,-1.765779E-1,-1.4084193E-1,3.3166975E-1,4.7301807E-2,2.9834092E-1,7.0917453E-3,2.4796242E-2,2.1040587E-2,9.849183E-3,1.0036395E-2,2.415232E-2,7.8501385E-3,-2.6369644E-3,3.778633E-2,2.4952564E-2,3.969639E-2,-3.376155E-2,2.452875E-2,1.3652191E-2,3.860114E-2,1.1521234E-2,1.1100057E-2,3.577121E-2,2.0139553E-2,3.2790594E-2,2.4633357E-2,8.975449E-3,8.403352E-3,-8.8378595E-4,7.7133565E-3,-5.9598624E-3,3.1223327E-2,1.2502889E-2,-4.7583293E-2,-1.9629626E-2,-7.690703E-3,-2.5797417E-2,4.0664386E-2,1.2992076E-2,5.756126E-3,-4.5218743E-2,-5.7857778E-2,-6.0804957E-3,-2.991042E-2,3.44866E-2,-2.3318373E-2,-6.421173E-2,-2.1721333E-2,-5.0928522E-2,-6.392729E-2,-4.2834483E-2,-6.371318E-2,9.504697E-3,-2.7328674E-2,2.9598435E-2,-6.654796E-2,-8.786875E-4],"split_indices":[37,78,5,14,5,56,37,78,38,55,55,39,96,35,37,19,55,29,6,20,93,91,95,22,12,75,0,67,87,19,16,45,55,44,5,5,61,5,5,52,97,5,28,25,81,96,3,0,0,54,13,0,0,96,59,1,99,68,37,6,87,0,0,0,0,0,0,0,0,0,0,0,0,0,0,0,0,0,0,0,0,0,0,0,0,0,0,0,0,0,0,0,0,0,0,0,0,0,0,0,0,0,0,0,0,0,0,0,0,0,0,0,0],"split_type":[0,0,0,0,0,0,0,0,0,0,0,0,0,0,0,0,0,0,0,0,0,0,0,0,0,0,0,0,0,0,0,0,0,0,0,0,0,0,0,0,0,0,0,0,0,0,0,0,0,0,0,0,0,0,0,0,0,0,0,0,0,0,0,0,0,0,0,0,0,0,0,0,0,0,0,0,0,0,0,0,0,0,0,0,0,0,0,0,0,0,0,0,0,0,0,0,0,0,0,0,0,0,0,0,0,0,0,0,0,0,0,0,0],"sum_hessian":[2.367946E4,2.1768918E4,1.9105433E3,7.141182E3,1.4627734E4,7.9452194E1,1.8310912E3,5.2155444E3,1.9256378E3,7.4031543E3,7.2245806E3,7.333659E1,6.115604E0,4.890292E2,1.342062E3,2.7231042E3,2.4924402E3,6.824867E2,1.2431512E3,1.426023E3,5.9771313E3,2.6742822E3,4.5502983E3,1.0135264E1,6.3201324E1,4.251317E0,1.8642871E0,3.7886197E2,1.1016721E2,7.135912E2,6.2847076E2,1.2298916E3,1.4932126E3,8.2356274E2,1.6688773E3,6.734382E2,9.048485E0,1.0642684E3,1.788828E2,9.7461523E2,4.5140768E2,7.2331006E2,5.2538213E3,2.3241506E3,3.5013162E2,1.5342375E3,3.0160608E3,1.0472186E0,9.088046E0,4.112903E1,2.2072296E1,3.2031677E0,1.0481492E0,4.7155045E1,3.3170694E2,8.172006E1,2.8447151E1,3.5940652E2,3.541847E2,2.7108436E0,6.2575995E2,1.7222522E2,1.0576664E3,4.6797318E2,1.0252395E3,5.272764E2,2.9628635E2,1.2113735E3,4.5750388E2,4.2579602E2,2.4764215E2,1.9935409E0,7.054944E0,5.365207E2,5.277477E2,1.4806499E2,3.0817814E1,9.000122E2,7.460303E1,2.3960783E2,2.1179985E2,2.508395E2,4.7247058E2,1.2698623E3,3.9839587E3,6.599352E2,1.6642156E3,7.632632E1,2.738053E2,9.404107E1,1.4401965E3,2.764187E3,2.5187372E2,1.5892E1,2.523703E1,1.6797798E1,5.2744985E0,4.3107033E1,4.0480113E0,3.2907184E2,2.6351094E0,4.103536E0,7.761652E1,7.959782E0,2.048737E1,1.0517872E2,2.542278E2,3.528561E2,1.3285646E0,1.6671454E0,1.0436981E0,6.247387E2,1.021207E0],"tree_param":{"num_deleted":"0","num_feature":"100","num_nodes":"113","size_leaf_vector":"0"}},{"base_weights":[1.3731354E-10,4.327859E-2,-5.1101846E-1,1.5972038E-1,-1.3039169E-2,1.4745326E-1,-5.381504E-1,3.0493963E-1,1.4094998E-1,6.2518E-2,-7.646989E-2,2.1109115E-1,-5.040503E-1,-3.692669E-1,-5.9670234E-1,2.2698E-1,3.4888735E-1,1.9938307E-1,9.979416E-2,1.8341741E-1,3.5909694E-2,-1.8289855E-2,-1.545922E-1,1.21967174E-1,4.3437698E-1,-1.0106264E-1,-6.0228485E-1,-3.3195683E-1,-6.394767E-1,-6.3254446E-1,-5.312134E-1,2.5109977E-1,-1.5896225E-1,2.93346E-1,4.26288E-1,1.6976215E-1,2.9884836E-1,1.96012E-1,7.4738145E-2,1.19316846E-1,2.3489285E-1,1.21566534E-1,1.1928931E-2,-5.0772566E-2,4.269909E-2,-2.779353E-1,-1.2880418E-1,-8.019059E-2,2.4919792E-1,1.674553E-1,6.397294E-1,-3.0425233E-1,-5.5199724E-1,-7.2533824E-3,-6.557367E-1,-3.2880154E-2,-6.344172E-1,-4.634489E-1,-6.2868816E-1,1.92993E-1,3.6417252E-1,-2.8861466E-1,5.485894E-1,2.5113449E-1,4.4754007E-1,3.287605E-1,4.991621E-1,2.6096413E-1,1.4443639E-1,3.2217106E-1,1.3663745E-1,2.1303569E-1,-3.657301E-3,1.7638836E-2,1.1360358E-1,4.9142864E-2,2.0063156E-1,1.8321684E-1,2.9376066E-1,9.002284E-2,2.1234287E-1,7.809688E-2,-2.1493752E-2,-8.55079E-3,-8.6812E-2,1.0328004E-2,1.6426034E-1,-5.283099E-1,-2.4484494E-1,-1.4078984E-1,4.564575E-2,5.6603163E-2,-5.4163706E-1,4.3917072E-1,1.4650574E-1,3.957621E-1,-1.9749856E-2,-3.104473E-1,2.1740814E-1,-5.68349E-1,4.5712095E-2,-1.5671627E-1,-6.645583E-1,-2.801323E-1,2.9544786E-1,-5.2838307E-2,-6.3583946E-1,-3.8072932E-1,-5.8075136E-1,-6.337227E-1,-1.6243972E-1],"categories":[],"categories_nodes":[],"categories_segments":[],"categories_sizes":[],"default_left":[1,1,1,1,1,1,1,1,1,1,1,1,1,1,1,1,1,1,1,1,1,1,1,1,1,0,0,1,1,1,1,1,1,1,1,1,1,1,1,1,1,1,1,1,1,1,1,1,1,1,0,1,1,0,1,1,1,1,1,0,0,0,0,0,0,0,0,0,0,0,0,0,0,0,0,0,0,0,0,0,0,0,0,0,0,0,0,0,0,0,0,0,0,0,0,0,0,0,0,0,0,0,0,0,0,0,0,0,0,0,0],"id":10,"left_children":[1,3,5,7,9,11,13,15,17,19,21,23,25,27,29,31,33,35,37,39,41,43,45,47,49,-1,-1,51,53,55,57,59,61,63,65,67,69,71,73,75,77,79,81,83,85,87,89,91,93,95,-1,97,99,-1,101,103,105,107,109,-1,-1,-1,-1,-1,-1,-1,-1,-1,-1,-1,-1,-1,-1,-1,-1,-1,-1,-1,-1,-1,-1,-1,-1,-1,-1,-1,-1,-1,-1,-1,-1,-1,-1,-1,-1,-1,-1,-1,-1,-1,-1,-1,-1,-1,-1,-1,-1,-1,-1,-1,-1],"loss_changes":[5.219893E2,1.4269427E2,3.300238E1,1.9292328E1,7.029833E1,3.1625366E0,1.7283325E1,2.6996078E0,1.5090668E1,2.1528173E1,3.6239197E1,1.2973981E0,2.1048558E-1,4.4083633E0,2.7454224E0,2.788334E0,2.0966797E0,7.5966415E0,8.878212E0,3.9555626E0,1.1271339E1,9.058374E0,1.07897415E1,1.3031824E0,9.325669E-1,0E0,0E0,2.299755E0,5.557766E-1,9.260559E-1,2.817047E0,1.758028E0,1.8076295E0,1.8669186E0,1.3547707E0,4.587223E0,2.2043114E0,2.589182E0,6.4962444E0,3.0699897E0,1.9799614E0,3.417694E0,9.486085E0,4.538621E0,6.2517033E0,4.7394257E0,5.896E0,1.2948316E0,5.377493E-1,4.1821456E-1,0E0,1.2365761E0,4.5640373E-1,0E0,1.2982559E-1,3.8148692E-1,6.616211E-1,2.5094337E0,3.4348297E-1,0E0,0E0,0E0,0E0,0E0,0E0,0E0,0E0,0E0,0E0,0E0,0E0,0E0,0E0,0E0,0E0,0E0,0E0,0E0,0E0,0E0,0E0,0E0,0E0,0E0,0E0,0E0,0E0,0E0,0E0,0E0,0E0,0E0,0E0,0E0,0E0,0E0,0E0,0E0,0E0,0E0,0E0,0E0,0E0,0E0,0E0,0E0,0E0,0E0,0E0,0E0,0E0],"parents":[2147483647,0,0,1,1,2,2,3,3,4,4,5,5,6,6,7,7,8,8,9,9,10,10,11,11,12,12,13,13,14,14,15,15,16,16,17,17,18,18,19,19,20,20,21,21,22,22,23,23,24,24,27,27,28,28,29,29,30,30,31,31,32,32,33,33,34,34,35,35,36,36,37,37,38,38,39,39,40,40,41,41,42,42,43,43,44,44,45,45,46,46,47,47,48,48,49,49,51,51,52,52,54,54,55,55,56,56,57,57,58,58],"right_children":[2,4,6,8,10,12,14,16,18,20,22,24,26,28,30,32,34,36,38,40,42,44,46,48,50,-1,-1,52,54,56,58,60,62,64,66,68,70,72,74,76,78,80,82,84,86,88,90,92,94,96,-1,98,100,-1,102,104,106,108,110,-1,-1,-1,-1,-1,-1,-1,-1,-1,-1,-1,-1,-1,-1,-1,-1,-1,-1,-1,-1,-1,-1,-1,-1,-1,-1,-1,-1,-1,-1,-1,-1,-1,-1,-1,-1,-1,-1,-1,-1,-1,-1,-1,-1,-1,-1,-1,-1,-1,-1,-1,-1],"split_conditions":[8.1077114E-2,-2.3034413E-1,-2.2019395E-1,-1.3698933E-1,-1.9334877E-1,1.2069386E-1,1.9017474E-1,-1.6494827E-1,-2.8969818E-1,-3.337197E-1,-1.7981905E-1,2.2848928E-1,-5.245773E-1,2.709007E-1,-2.3224175E-1,5.505314E-1,2.0642069E-1,-1.9352838E-2,-1.7586735E-1,-7.537734E-2,-2.9987127E-1,2.8056794E-1,2.5115296E-2,2.7993262E-1,2.2274038E-1,-1.0106265E-2,-6.0228486E-2,2.2174421E-1,-2.7430964E-1,-7.640096E-1,2.3790607E-1,9.261875E-2,2.9123807E-1,1.6418326E-1,3.6819205E-2,-3.2734863E-2,-1.0051381E-2,1.2192171E-1,1.6166383E-1,8.298147E-2,2.707159E-1,2.3467395E-1,-1.05030835E-1,-1.3262084E-1,-1.3504753E-1,-1.1119965E-1,1.2823415E-1,1.6000143E-1,2.0080356E-1,-9.610012E-2,6.397294E-2,2.5622284E-1,2.032922E-1,-7.2533824E-4,-8.4768385E-2,4.7301807E-2,-1.9079189E-1,2.4408436E-1,4.6319157E-1,1.92993E-2,3.6417253E-2,-2.8861467E-2,5.485894E-2,2.5113449E-2,4.475401E-2,3.2876052E-2,4.991621E-2,2.6096413E-2,1.4443639E-2,3.2217108E-2,1.36637455E-2,2.130357E-2,-3.657301E-4,1.7638836E-3,1.13603575E-2,4.9142865E-3,2.0063156E-2,1.8321684E-2,2.9376065E-2,9.002284E-3,2.1234287E-2,7.8096883E-3,-2.1493752E-3,-8.5507904E-4,-8.6811995E-3,1.0328004E-3,1.6426034E-2,-5.283099E-2,-2.4484495E-2,-1.4078984E-2,4.5645754E-3,5.6603164E-3,-5.4163706E-2,4.391707E-2,1.4650575E-2,3.957621E-2,-1.9749857E-3,-3.104473E-2,2.1740815E-2,-5.6834903E-2,4.5712097E-3,-1.5671628E-2,-6.645583E-2,-2.801323E-2,2.9544786E-2,-5.2838307E-3,-6.358395E-2,-3.8072933E-2,-5.8075137E-2,-6.337228E-2,-1.6243972E-2],"split_indices":[37,78,5,38,55,56,37,66,5,55,5,36,89,66,95,96,64,26,81,45,5,95,95,51,14,0,0,32,32,16,66,70,22,42,30,38,28,29,20,14,95,20,40,25,66,50,33,15,94,86,0,95,59,0,12,6,89,89,93,0,0,0,0,0,0,0,0,0,0,0,0,0,0,0,0,0,0,0,0,0,0,0,0,0,0,0,0,0,0,0,0,0,0,0,0,0,0,0,0,0,0,0,0,0,0,0,0,0,0,0,0],"split_type":[0,0,0,0,0,0,0,0,0,0,0,0,0,0,0,0,0,0,0,0,0,0,0,0,0,0,0,0,0,0,0,0,0,0,0,0,0,0,0,0,0,0,0,0,0,0,0,0,0,0,0,0,0,0,0,0,0,0,0,0,0,0,0,0,0,0,0,0,0,0,0,0,0,0,0,0,0,0,0,0,0,0,0,0,0,0,0,0,0,0,0,0,0,0,0,0,0,0,0,0,0,0,0,0,0,0,0,0,0,0,0],"sum_hessian":[2.360017E4,2.1758352E4,1.841818E3,7.09239E3,1.4665961E4,7.271233E1,1.7691057E3,8.1005615E2,6.2823345E3,6.6931973E3,7.9727637E3,6.6857765E1,5.8545713E0,4.5732657E2,1.311779E3,2.9424847E2,5.158077E2,2.5946304E3,3.6877039E3,1.2062952E3,5.4869023E3,4.5703335E3,3.4024304E3,4.8889774E1,1.796799E1,1.5450596E0,4.309512E0,4.0379922E2,5.3527325E1,8.421894E2,4.6958975E2,2.7726968E2,1.697879E1,3.0309912E2,2.1270854E2,2.0013363E3,5.932941E2,7.604955E2,2.9272083E3,5.387395E2,6.675557E2,1.1992465E3,4.287656E3,2.9821877E3,1.5881456E3,5.8666364E2,2.8157668E3,1.9027143E1,2.986263E1,8.602161E0,9.3658285E0,3.6075992E2,4.3039314E1,1.3783926E0,5.2148933E1,2.6797636E0,8.395096E2,2.8040588E2,1.8918385E2,1.849387E2,9.233099E1,1.4849794E1,2.1289964E0,2.4002075E2,6.307836E1,9.33241E1,1.1938444E2,4.3294193E2,1.5683944E3,5.178513E2,7.5442795E1,7.006883E2,5.980719E1,1.1860995E3,1.7411088E3,2.900408E2,2.486987E2,3.5768283E2,3.0987286E2,8.914648E2,3.0778168E2,1.4384917E3,2.8491643E3,1.3738726E3,1.6083151E3,1.2550245E3,3.331211E2,6.673729E1,5.199264E2,2.634926E3,1.8084091E2,1.5353116E1,3.6740274E0,9.328688E0,2.0533943E1,3.3736985E0,5.2284627E0,3.5692615E2,3.8337858E0,4.194104E1,1.0982753E0,1.2318301E0,5.0917103E1,1.6123508E0,1.0674126E0,2.1411028E0,8.3736847E2,1.6693326E2,1.1347262E2,1.8680751E2,2.3763506E0],"tree_param":{"num_deleted":"0","num_feature":"100","num_nodes":"111","size_leaf_vector":"0"}},{"base_weights":[1.4030313E-10,4.130773E-2,-4.9738732E-1,1.6532715E-1,-7.3818294E-3,1.3307412E-1,-5.239493E-1,2.912093E-1,1.4598186E-1,5.8937196E-2,-7.915576E-2,1.9016895E-1,-4.5508873E-1,-3.9851925E-1,-5.9750867E-1,3.8547885E-1,2.5722137E-1,2.4514578E-1,1.2347147E-1,1.6523577E-1,3.2942485E-2,5.0966074E-3,-1.2930112E-1,2.4990769E-1,-1.8430226E-1,-4.3258518E-2,-5.7547134E-1,-3.3018014E-1,-5.6124586E-1,-5.563427E-1,-6.319142E-1,4.4420683E-1,2.3653662E-1,3.108901E-1,1.7842211E-1,3.264253E-1,2.0477489E-1,1.6014028E-1,7.209528E-2,1.2131475E-1,2.3673204E-1,1.5138814E-1,1.8042514E-2,-1.7605497E-2,1.9929989E-1,-2.0845324E-1,-8.961E-2,-5.264849E-3,3.1274855E-1,-2.958099E-1,3.8726777E-1,-5.9470856E-1,-3.058361E-1,-6.276881E-1,-4.4741812E-1,-5.988319E-1,-4.774799E-1,-6.51664E-2,-6.3438946E-1,-3.988132E-2,4.6633485E-1,2.6481423E-1,-3.703125E-1,-1.8896885E-1,3.255371E-1,3.0646828E-1,1.1594635E-1,4.3230063E-1,2.5143147E-1,2.6365465E-1,1.5578118E-1,2.3110276E-1,1.2372292E-1,1.0753912E-2,1.1534377E-1,1.6822521E-1,2.8999442E-2,2.8196004E-1,1.6188711E-1,1.1084322E-1,2.6673982E-1,8.19432E-2,-5.8273277E-3,-6.0717404E-2,7.064329E-2,4.1732895E-1,1.723359E-1,-4.8290497E-1,-1.941566E-1,-7.4536726E-2,-2.571666E-1,-2.8588963E-1,2.1614935E-1,1.1407024E-1,4.1099775E-1,1.8193632E-1,-3.9693597E-1,-2.1040058E-1,-6.2694335E-1,-2.9190582E-1,-6.1977327E-1,-6.348944E-1,-1.7634673E-1,-4.6442816E-1,4.0287115E-2,-2.1652048E-2,-6.009353E-1,-6.03891E-1,-4.0350702E-1,-2.4837577E-1,1.7914462E-1,-1.0384835E-1,-6.354049E-1],"categories":[],"categories_nodes":[],"categories_segments":[],"categories_sizes":[],"default_left":[1,1,1,1,1,1,1,1,1,1,1,1,1,1,1,1,1,1,1,1,1,1,1,1,1,0,0,1,1,1,1,1,1,1,1,1,1,1,1,1,1,1,1,1,1,1,1,1,1,1,0,1,1,1,1,1,1,1,1,0,0,0,0,0,0,0,0,0,0,0,0,0,0,0,0,0,0,0,0,0,0,0,0,0,0,0,0,0,0,0,0,0,0,0,0,0,0,0,0,0,0,0,0,0,0,0,0,0,0,0,0,0,0],"id":11,"left_children":[1,3,5,7,9,11,13,15,17,19,21,23,25,27,29,31,33,35,37,39,41,43,45,47,49,-1,-1,51,53,55,57,59,61,63,65,67,69,71,73,75,77,79,81,83,85,87,89,91,93,95,-1,97,99,101,103,105,107,109,111,-1,-1,-1,-1,-1,-1,-1,-1,-1,-1,-1,-1,-1,-1,-1,-1,-1,-1,-1,-1,-1,-1,-1,-1,-1,-1,-1,-1,-1,-1,-1,-1,-1,-1,-1,-1,-1,-1,-1,-1,-1,-1,-1,-1,-1,-1,-1,-1,-1,-1,-1,-1,-1,-1],"loss_changes":[4.827496E2,1.3100177E2,3.0241669E1,1.4851486E1,7.416197E1,2.559334E0,1.5715271E1,2.5079498E0,1.1807991E1,2.2370821E1,3.1612751E1,1.5633583E0,3.127439E-1,6.9561005E0,1.18927E0,1.7634983E0,2.4864998E0,3.1492996E0,8.13488E0,4.9671326E0,1.1482838E1,1.231616E1,1.4717674E1,9.46429E-1,7.459799E-1,0E0,0E0,2.7461052E0,1.1447792E0,1.4017181E0,7.796631E-1,1.6475754E0,1.1714394E0,2.6694412E0,1.9313636E0,2.4605598E0,1.8557892E0,6.4901276E0,4.781352E0,4.271866E0,2.0001945E0,3.3708687E0,8.819668E0,9.5208645E0,1.6469536E0,6.0501404E0,7.8755264E0,8.463092E-1,8.762746E-1,5.001105E-1,0E0,3.2964897E-1,1.6489372E0,2.6708603E-1,6.239567E-1,3.7957E-1,1.4514465E0,2.0829102E-1,2.4784851E-1,0E0,0E0,0E0,0E0,0E0,0E0,0E0,0E0,0E0,0E0,0E0,0E0,0E0,0E0,0E0,0E0,0E0,0E0,0E0,0E0,0E0,0E0,0E0,0E0,0E0,0E0,0E0,0E0,0E0,0E0,0E0,0E0,0E0,0E0,0E0,0E0,0E0,0E0,0E0,0E0,0E0,0E0,0E0,0E0,0E0,0E0,0E0,0E0,0E0,0E0,0E0,0E0,0E0,0E0],"parents":[2147483647,0,0,1,1,2,2,3,3,4,4,5,5,6,6,7,7,8,8,9,9,10,10,11,11,12,12,13,13,14,14,15,15,16,16,17,17,18,18,19,19,20,20,21,21,22,22,23,23,24,24,27,27,28,28,29,29,30,30,31,31,32,32,33,33,34,34,35,35,36,36,37,37,38,38,39,39,40,40,41,41,42,42,43,43,44,44,45,45,46,46,47,47,48,48,49,49,51,51,52,52,53,53,54,54,55,55,56,56,57,57,58,58],"right_children":[2,4,6,8,10,12,14,16,18,20,22,24,26,28,30,32,34,36,38,40,42,44,46,48,50,-1,-1,52,54,56,58,60,62,64,66,68,70,72,74,76,78,80,82,84,86,88,90,92,94,96,-1,98,100,102,104,106,108,110,112,-1,-1,-1,-1,-1,-1,-1,-1,-1,-1,-1,-1,-1,-1,-1,-1,-1,-1,-1,-1,-1,-1,-1,-1,-1,-1,-1,-1,-1,-1,-1,-1,-1,-1,-1,-1,-1,-1,-1,-1,-1,-1,-1,-1,-1,-1,-1,-1,-1,-1,-1,-1,-1,-1],"split_conditions":[8.1077114E-2,-2.4341282E-1,-2.1461825E-1,-1.3349238E-1,-2.2105575E-1,1.2069386E-1,2.304245E-1,-1.23091236E-1,-3.2387996E-1,-2.833094E-1,-1.7985946E-1,-1.0719514E-1,-5.245773E-1,2.0355144E-1,3.334454E-1,-5.175981E-2,-1.8588535E-1,-1.5435505E-1,-2.4929525E-1,1.0420196E-1,-1.9895943E-1,3.7349075E-1,1.3480519E-1,8.016664E-2,1.12938374E-1,-4.325852E-3,-5.7547133E-2,-2.8948465E-1,-2.2478446E-1,-2.322425E-1,-7.640096E-1,-1.21708885E-1,-4.5697406E-2,-3.9238638E-1,-4.0061682E-1,2.5370258E-1,-1.4631629E-1,-8.5885234E-2,1.6163337E-1,3.412565E-1,-6.2317103E-2,2.115925E-1,-1.366527E-1,2.8347132E-1,-3.2652044E-1,-1.0957043E-1,6.282903E-2,1.9979401E-1,4.303445E-2,-3.425362E-1,3.8726777E-2,3.9945878E-2,3.3356857E-1,1.3422906E-1,8.553248E-2,-3.349138E-1,-3.2738948E-1,4.7301807E-2,-5.9438396E-1,-3.988132E-3,4.6633486E-2,2.6481424E-2,-3.7031252E-2,-1.8896885E-2,3.255371E-2,3.0646829E-2,1.1594635E-2,4.3230064E-2,2.5143147E-2,2.6365465E-2,1.5578118E-2,2.3110276E-2,1.2372292E-2,1.0753912E-3,1.1534377E-2,1.6822523E-2,2.8999443E-3,2.8196005E-2,1.618871E-2,1.1084322E-2,2.6673982E-2,8.19432E-3,-5.827328E-4,-6.0717403E-3,7.064329E-3,4.1732896E-2,1.723359E-2,-4.82905E-2,-1.941566E-2,-7.4536726E-3,-2.571666E-2,-2.8588964E-2,2.1614935E-2,1.1407024E-2,4.1099776E-2,1.8193632E-2,-3.9693598E-2,-2.1040058E-2,-6.269433E-2,-2.9190583E-2,-6.1977327E-2,-6.348944E-2,-1.7634673E-2,-4.6442818E-2,4.0287115E-3,-2.1652048E-3,-6.009353E-2,-6.03891E-2,-4.03507E-2,-2.4837578E-2,1.7914463E-2,-1.0384835E-2,-6.354049E-2],"split_indices":[37,78,5,38,5,56,37,40,55,55,55,19,89,19,37,81,55,28,5,14,83,91,95,61,40,0,0,74,2,95,16,74,19,26,56,60,76,29,20,60,17,20,28,95,13,50,3,22,60,6,0,89,89,0,79,39,96,6,54,0,0,0,0,0,0,0,0,0,0,0,0,0,0,0,0,0,0,0,0,0,0,0,0,0,0,0,0,0,0,0,0,0,0,0,0,0,0,0,0,0,0,0,0,0,0,0,0,0,0,0,0,0,0],"split_type":[0,0,0,0,0,0,0,0,0,0,0,0,0,0,0,0,0,0,0,0,0,0,0,0,0,0,0,0,0,0,0,0,0,0,0,0,0,0,0,0,0,0,0,0,0,0,0,0,0,0,0,0,0,0,0,0,0,0,0,0,0,0,0,0,0,0,0,0,0,0,0,0,0,0,0,0,0,0,0,0,0,0,0,0,0,0,0,0,0,0,0,0,0,0,0,0,0,0,0,0,0,0,0,0,0,0,0,0,0,0,0,0,0],"sum_hessian":[2.3494107E4,2.1693398E4,1.8007073E3,6.115058E3,1.5578341E4,7.263647E1,1.7280708E3,8.1269556E2,5.3023623E3,8.096949E3,7.481392E3,6.682612E1,5.8103495E0,6.4117896E2,1.0868918E3,2.1262198E2,6.000736E2,9.7913513E2,4.323227E3,1.5899415E3,6.5070073E3,2.7917297E3,4.6896626E3,5.7919033E1,8.9070835E0,1.621731E0,4.1886187E0,4.5367947E2,1.8749948E2,5.0264822E2,5.8424365E2,1.5107187E2,6.155011E1,3.552047E2,2.448689E2,3.2258423E2,6.565509E2,2.521463E3,1.8017643E3,9.86574E2,6.033676E2,7.2606604E2,5.7809414E3,2.5003513E3,2.913784E2,1.5648274E3,3.124835E3,1.1626107E1,4.6292923E1,7.8567667E0,1.0503166E0,3.625829E1,4.174212E2,1.15542145E2,7.195733E1,3.2237045E2,1.8027776E2,2.6594186E0,5.815842E2,6.5686703E0,1.445032E2,5.934826E1,2.201853E0,9.773156E0,3.4543155E2,7.90165E1,1.658524E2,1.3177773E2,1.9080652E2,2.962007E2,3.603502E2,8.5332886E2,1.668134E3,7.455559E2,1.0562084E3,6.536144E2,3.3295956E2,3.7437158E2,2.2899606E2,5.386848E2,1.8738121E2,1.571508E3,4.2094336E3,1.6799584E3,8.2039294E2,3.0475801E1,2.609026E2,7.5855545E1,1.4889718E3,2.8682537E3,2.565813E2,4.999034E0,6.6270733E0,1.6032743E1,3.0260181E1,1.232938E0,6.6238284E0,3.388398E0,3.2869892E1,4.015338E2,1.5887395E1,1.13326065E2,2.216084E0,6.957832E1,2.379006E0,1.211549E0,3.211589E2,6.390604E1,1.1637172E2,1.5102448E0,1.1491736E0,1.3082628E0,5.8027594E2],"tree_param":{"num_deleted":"0","num_feature":"100","num_nodes":"113","size_leaf_vector":"0"}},{"base_weights":[1.7901298E-10,-4.9230322E-1,3.8321972E-2,-5.135711E-1,1.946264E-1,1.4748031E-1,-1.4321083E-2,-3.8080856E-1,-5.763903E-1,-4.1167971E-1,2.9091173E-1,1.17641255E-1,2.2800945E-1,5.221766E-2,-8.263102E-2,-3.108296E-1,-5.614398E-1,-5.3310025E-1,-6.185749E-1,-6.8524196E-3,-5.912723E-1,9.016438E-2,4.5760068E-1,1.5398099E-1,6.687552E-2,2.8784868E-1,1.880758E-1,1.766138E-1,3.0648721E-2,-1.984665E-3,-1.2877578E-1,-5.0293374E-1,-2.6863158E-1,-6.158792E-1,-4.5568454E-1,-5.6961805E-1,-4.1084808E-1,-3.1543426E-2,-6.2141013E-1,1.8582699E-1,-1.8141174E-1,3.9801255E-1,-4.931752E-2,6.149261E-1,1.704369E-1,2.3699364E-1,1.205437E-1,1.9684762E-1,4.6890818E-2,4.0304282E-1,2.610578E-1,2.0731562E-1,3.806337E-2,1.4877726E-1,3.294128E-1,1.3548572E-2,1.390455E-1,-5.0879024E-2,7.968676E-2,-2.0444252E-1,-8.861872E-2,-6.078562E-1,-3.4910834E-1,1.4457649E-1,-2.83574E-1,-9.286142E-2,-6.2170446E-1,-6.0514086E-1,-3.7268615E-1,-5.9509885E-1,-4.785366E-1,-5.921837E-1,-3.1731576E-1,-2.5903755E-1,2.800845E-1,-4.853895E-2,-6.22545E-1,-1.5637973E-1,5.4510427E-1,4.1323192E-2,-3.8346672E-1,6.5989125E-1,-1.1060033E-2,4.4321984E-1,-1.074105E-1,2.0325561E-1,3.1273627E-1,2.9915532E-1,1.0878817E-1,2.2375888E-1,-7.863233E-2,3.5622185E-3,9.0423875E-2,1.8195413E-1,4.5797774E-1,2.9811177E-1,1.6064022E-1,3.2152873E-1,1.7975047E-1,-2.9127736E-2,3.089169E-1,2.4189861E-1,1.1116304E-1,3.931992E-1,1.1240733E-1,5.5649266E-2,-1.907799E-2,2.6836506E-1,1.09814025E-1,-8.862324E-2,5.4144632E-2,2.0997591E-1,4.170125E-2,-1.902644E-1,-5.2703434E-1,-7.356147E-2,-2.5239396E-1],"categories":[],"categories_nodes":[],"categories_segments":[],"categories_sizes":[],"default_left":[1,1,1,1,1,1,1,1,1,1,1,1,1,1,1,1,1,1,1,1,0,1,1,1,1,1,1,1,1,1,1,1,1,1,1,1,1,1,1,0,0,1,1,1,1,1,1,1,1,1,1,1,1,1,1,1,1,1,1,1,1,0,0,0,0,0,0,0,0,0,0,0,0,0,0,0,0,0,0,0,0,0,0,0,0,0,0,0,0,0,0,0,0,0,0,0,0,0,0,0,0,0,0,0,0,0,0,0,0,0,0,0,0,0,0,0,0],"id":12,"left_children":[1,3,5,7,9,11,13,15,17,19,21,23,25,27,29,31,33,35,37,39,-1,41,43,45,47,49,51,53,55,57,59,61,63,65,67,69,71,73,75,-1,-1,77,79,81,83,85,87,89,91,93,95,97,99,101,103,105,107,109,111,113,115,-1,-1,-1,-1,-1,-1,-1,-1,-1,-1,-1,-1,-1,-1,-1,-1,-1,-1,-1,-1,-1,-1,-1,-1,-1,-1,-1,-1,-1,-1,-1,-1,-1,-1,-1,-1,-1,-1,-1,-1,-1,-1,-1,-1,-1,-1,-1,-1,-1,-1,-1,-1,-1,-1,-1,-1],"loss_changes":[4.4082578E2,2.4753693E1,1.2457663E2,1.34340515E1,3.120574E0,1.6921783E1,6.648439E1,6.509369E0,1.6960144E0,5.3820765E-1,1.4626846E0,9.487686E0,4.5001373E0,1.987575E1,2.685883E1,2.9725838E0,5.6227875E-1,2.2425232E0,9.051361E-1,1.4482823E-1,0E0,9.486009E-1,9.93464E-1,8.298042E0,5.5744476E0,2.2431335E0,3.2995377E0,4.607258E0,1.1705601E1,1.0497411E1,1.3930962E1,8.8363457E-1,1.9949474E0,2.2808456E-1,4.393587E-1,7.00531E-1,2.0369701E0,3.3656037E-1,3.292389E-1,0E0,0E0,6.4433575E-1,4.9373615E-1,4.385748E-1,8.046023E-1,2.1349144E0,4.461773E0,2.1391459E0,3.5165477E0,1.638176E0,2.2597618E0,3.1391487E0,2.4019814E0,3.223051E0,2.2795467E0,7.4961934E0,3.2234592E0,6.522959E0,4.863309E0,7.1759415E0,7.3814983E0,0E0,0E0,0E0,0E0,0E0,0E0,0E0,0E0,0E0,0E0,0E0,0E0,0E0,0E0,0E0,0E0,0E0,0E0,0E0,0E0,0E0,0E0,0E0,0E0,0E0,0E0,0E0,0E0,0E0,0E0,0E0,0E0,0E0,0E0,0E0,0E0,0E0,0E0,0E0,0E0,0E0,0E0,0E0,0E0,0E0,0E0,0E0,0E0,0E0,0E0,0E0,0E0,0E0,0E0,0E0,0E0],"parents":[2147483647,0,0,1,1,2,2,3,3,4,4,5,5,6,6,7,7,8,8,9,9,10,10,11,11,12,12,13,13,14,14,15,15,16,16,17,17,18,18,19,19,21,21,22,22,23,23,24,24,25,25,26,26,27,27,28,28,29,29,30,30,31,31,32,32,33,33,34,34,35,35,36,36,37,37,38,38,41,41,42,42,43,43,44,44,45,45,46,46,47,47,48,48,49,49,50,50,51,51,52,52,53,53,54,54,55,55,56,56,57,57,58,58,59,59,60,60],"right_children":[2,4,6,8,10,12,14,16,18,20,22,24,26,28,30,32,34,36,38,40,-1,42,44,46,48,50,52,54,56,58,60,62,64,66,68,70,72,74,76,-1,-1,78,80,82,84,86,88,90,92,94,96,98,100,102,104,106,108,110,112,114,116,-1,-1,-1,-1,-1,-1,-1,-1,-1,-1,-1,-1,-1,-1,-1,-1,-1,-1,-1,-1,-1,-1,-1,-1,-1,-1,-1,-1,-1,-1,-1,-1,-1,-1,-1,-1,-1,-1,-1,-1,-1,-1,-1,-1,-1,-1,-1,-1,-1,-1,-1,-1,-1,-1,-1,-1],"split_conditions":[-1.1531554E-1,2.0819853E-1,-2.3034413E-1,2.0883143E-1,-1.0138026E-1,1.2559521E-1,-2.2105575E-1,2.1427274E-1,3.3186454E-1,-1.5376247E-1,2.799992E-1,-2.4919806E-1,-6.1106533E-2,-1.9903526E-1,-1.7985946E-1,-3.415956E-1,-2.2225246E-1,-2.060173E-1,-7.640096E-1,-2.6470426E-2,-5.912723E-2,-1.1791228E-3,1.3156777E-2,-3.272917E-2,-2.118047E-1,-2.4651039E-1,-1.2532285E-1,1.5418532E-1,2.6026875E-1,1.4235495E-1,1.3502535E-1,-1.8919104E-1,-1.4263944E-1,-1.5264884E-1,-1.7550728E-1,-2.2450747E-1,-1.4989954E-1,4.7301807E-2,-5.9438396E-1,1.85827E-2,-1.8141175E-2,-9.879855E-2,1.33614E-1,4.3141684E-1,4.6747017E-1,-1.7644452E-2,1.3049687E-1,1.3351208E-1,1.10517174E-1,1.0620872E-3,-1.9287422E-1,-3.969649E-1,6.064757E-3,-3.0224946E-1,4.1172865E-1,-1.0516697E-1,-1.8541265E-1,2.9723236E-1,-1.1856119E-1,1.3032284E-1,6.097556E-2,-6.078562E-2,-3.4910835E-2,1.445765E-2,-2.83574E-2,-9.286142E-3,-6.2170446E-2,-6.051409E-2,-3.7268616E-2,-5.9509885E-2,-4.785366E-2,-5.9218373E-2,-3.1731576E-2,-2.5903756E-2,2.800845E-2,-4.853895E-3,-6.22545E-2,-1.5637973E-2,5.4510426E-2,4.1323192E-3,-3.8346674E-2,6.598913E-2,-1.1060033E-3,4.4321984E-2,-1.074105E-2,2.0325562E-2,3.127363E-2,2.9915532E-2,1.0878817E-2,2.2375887E-2,-7.863234E-3,3.5622186E-4,9.042388E-3,1.8195413E-2,4.5797776E-2,2.9811177E-2,1.6064024E-2,3.2152873E-2,1.7975047E-2,-2.9127735E-3,3.089169E-2,2.4189861E-2,1.1116304E-2,3.931992E-2,1.1240733E-2,5.5649267E-3,-1.907799E-3,2.6836505E-2,1.0981402E-2,-8.862324E-3,5.414463E-3,2.0997591E-2,4.170125E-3,-1.9026441E-2,-5.2703436E-2,-7.356147E-3,-2.5239397E-2],"split_indices":[60,96,78,37,94,14,5,19,37,97,87,5,38,83,55,67,2,96,16,48,0,15,93,38,81,28,55,33,20,64,95,74,32,11,51,2,30,6,54,0,0,49,12,82,87,85,60,29,64,20,32,5,80,35,50,28,81,95,81,19,3,0,0,0,0,0,0,0,0,0,0,0,0,0,0,0,0,0,0,0,0,0,0,0,0,0,0,0,0,0,0,0,0,0,0,0,0,0,0,0,0,0,0,0,0,0,0,0,0,0,0,0,0,0,0,0,0],"split_type":[0,0,0,0,0,0,0,0,0,0,0,0,0,0,0,0,0,0,0,0,0,0,0,0,0,0,0,0,0,0,0,0,0,0,0,0,0,0,0,0,0,0,0,0,0,0,0,0,0,0,0,0,0,0,0,0,0,0,0,0,0,0,0,0,0,0,0,0,0,0,0,0,0,0,0,0,0,0,0,0,0,0,0,0,0,0,0,0,0,0,0,0,0,0,0,0,0,0,0,0,0,0,0,0,0,0,0,0,0,0,0,0,0,0,0,0,0],"sum_hessian":[2.3364113E4,1.6865103E3,2.1677602E4,1.6361075E3,5.0402786E1,7.052352E3,1.462525E4,5.2777216E2,1.1083353E3,6.458454E0,4.3944332E1,5.1474795E3,1.9048724E3,7.4087935E3,7.2164565E3,3.8236118E2,1.45411E2,5.5373114E2,5.5460425E2,2.3037126E0,4.1547413E0,2.0634563E1,2.3309769E1,2.998806E3,2.1486738E3,7.5993176E2,1.1449408E3,1.0937189E3,6.3150747E3,2.626759E3,4.5896978E3,6.6897156E1,3.1546402E2,9.281121E1,5.259978E1,4.2355286E2,1.3017828E2,2.7240071E0,5.518802E2,1.06434E0,1.2393726E0,5.8561177E0,1.4778446E1,1.4321966E1,8.987803E0,8.593251E2,2.139481E3,2.851737E2,1.8635E3,1.4074023E2,6.191915E2,1.01445056E3,1.304902E2,9.2684265E2,1.6687622E2,5.4555576E3,